0.2810336393800986
-0.25404125721624193
-0.20004915416536045
-0.47880370399527705
0.3587666105246599
0.527885462903567
-0.31983711209178267
-0.90949057842306
-0.055085262015327006
0.8092986613823736
0.24537525615340045
0.475238543144345
-0.6285095251758193
-0.29482241481226495
-0.16623522310890262
-0.38268772836883286
-0.04404844857375037
0.09521467541464516
-0.3757507851511748
-0.7339129336502714
-0.9575054149919978
-0.6449980847116576
0.13626932324775737
0.13636287077115686
0.44226814329004593
-0.4142487561602319
0.917332955533387
0.894419902653614
-0.4306507230744321
0.6941511056481888
0.2446812185376692
-0.3464665522020902
-0.7074791994175869
-0.8029900568267606
-0.7952099371487231
-0.7361908559972464
-0.31588818868931956
0.16743481422601317
-0.08422943384049172
-0.8918529658478106
0.4962528685739563
0.7499536802714065
0.7259873857692896
0.577524167264503
-0.1673166201912794
0.7401570392502053
0.7481718460448822
1.001736311685816
0.4699516834760862
-0.9978404388574106
0.3371908313204923
-0.17584070485702233
0.12338834874481482
-0.6023825339531685
-0.6569093737500539
0.9515102108322739
0.42772019875989004
-0.788376628311909
-0.5387309336922945
-0.08644161776376252
0.9885739126734115
0.2877156863837495
0.7290428765028368
0.43286611240649986
0.2562470316340982
0.30935921876027594
-0.01219053979222175
0.8316437925578872
0.789148209718508
0.11263715586838353
0.9019700551340306
0.23516798661799687
-0.025075866568807843
-0.5625028303662937
-0.23760095782794732
-0.04985263159740755
0.985795003835752
0.03937646704599473
-0.5258940412147586
-0.9955663129387246
0.20190387185766598
-0.08067066067502082
0.8561527706713301
-0.4174043110294127
-0.7959068400181152
0.6072824086056345
-0.8997702578786356
-0.7706923878335626
-0.5633122270192015
0.1366089697118371
-0.032375429415838326
0.9221380591514899
-0.4391338331401094
-0.29106441541459604
0.27604934191114466
-0.6585655447727788
0.5932837974340788
0.8864991650380339
-0.6989288978763953
-0.1728985238934626
-0.38681975492394616
-0.6619877998342375
0.0622081032762264
0.24393533068788775
0.6763720705769319
-0.7220766392726998
-0.09755423565762228
0.29525825933666505
-0.29329082690619873
-0.9922800788608802
0.5227077976651969
-1.0919631872553464
0.06267828220688587
0.85717983273319
1.0047646441182374
-0.32115580115011405
-0.5685827951800524
-0.9522813828938628
0.8002895030821292
0.2912338181123564
-0.7255589581836929
0.5955021279307812
0.15712299860252613
-0.9200105271557584
-0.34304636679881007
-0.226708748013186
0.23651919870322408
0.6926793750245999
0.8551792214311983
0.9418266431896872
1.0294177613036608
-0.02558338809354582
0.11179410257620956
0.2391693967005189
-0.030007917994129076
-1.07989362205513
-0.5807467064615264
-0.590726063040445
0.3258004911423745
-0.00690289504482623
0.33435190723070934
0.4549942896021809
0.8363475142318928
-0.3715441307197268
-0.7719331138594928
0.4492501538618352
0.6028838423700196
0.4327400950702598
-0.746372627540553
-0.3159993325924025
-0.4394059559315275
-0.7155366115339458
-0.40301251402869304
0.29423343145714337
0.9126766638266789
0.09483105141243921
0.5785227781468669
0.22275247487746153
-0.9050559915886578
-0.9402557309128924
0.40442237342161774
0.4631070133390389
0.28982596837296826
-0.5809709402199899
0.052412683923596215
-0.8741306282383942
-0.8639413150847068
0.8462985921707443
0.7898856500409805
0.6617347344502927
0.16380115785411922
-0.7323896738428136
-0.07979401412308561
0.17363857581116188
-0.7861243497092013
0.3217440749301971
-0.6375726404112588
-0.5658375814331945
-0.2682593789403342
-0.3112149556529485
-0.8326059800266282
-0.033876251154245876
0.6599621343770449
-0.36615009675977367
-0.441653768101409
0.8549708153520291
-0.43147472660480085
0.696858154249506
-0.5093387352596516
-0.7976242285189324
-0.7334568281404668
0.39447108479509463
0.641047242861946
-0.2113802288667382
0.7091453489795678
0.1501459805750501
-0.8396229589758515
0.7570409613305831
0.01570751997136999
-0.47827063545439474
