-0.37040475107776927
-0.3756677916713962
0.08890513113008912
0.13642911688267378
-0.3459720320587126
-0.572207301440622
0.12855142215812138
0.3574684910916153
0.5982899800836559
-0.9976444517019708
0.3929575322306261
0.9848542469984229
0.7581846190573722
-0.3737664153859098
0.0027125539462468217
0.3966729304575524
0.8761489745687827
-0.6191663619450006
-0.3602103457408247
0.15745404263602505
0.01752103531004649
-0.8325464220167483
-0.07311757845888658
-0.9078220670372147
-0.8968831814711858
-0.5395641920147106
-0.7518591226296594
-0.7221412199263327
-0.08764650316072001
0.7757790264272498
0.551405337303409
-0.2714366133096268
-0.13127283648333238
0.05981469806050472
0.04253951206779638
0.40308370032119434
0.12138453467325891
-0.07066543296859133
0.5693178581481529
0.10631432401742377
-0.15989094264454373
-0.6847919495990644
0.3621711518894684
0.8110324452408476
0.30002457219446865
0.661889620275281
0.17193917707503367
-0.7072760550569677
-0.4135008823776765
-0.34263788070163315
0.8157347936029339
-0.07769818872779875
0.9414646894226897
-0.7077044968223186
0.8053266903340404
-0.9518958053122293
0.6685888974862234
-0.3569062760857489
-0.9108824408093665
-0.34549567903895084
-0.9117416034261542
-0.23454110728325933
-0.20987479919498989
0.2270961798779527
-0.6944395926827551
0.29872607859194983
-0.012012677207762905
-0.8778034501455281
-0.159130339910037
0.240760928974319
0.9646014445449833
0.2807566857132299
0.5337259757764168
-0.6529365322583263
0.12071029533873473
-0.12381529955325936
-0.26555672131959857
0.08410866669654361
0.5861832197077056
0.6668323227143935
0.22588799190866943
-0.5395403954017719
-0.7328371474603835
-0.8918521076410844
0.35107096463303844
0.8384558680129739
0.2602777050104668
-0.9868325905739115
0.18311155279367164
1.009752751719869
-0.09684272742475673
-0.5638990037943774
0.07691186895252647
-0.5842306189120282
-0.8437355423217551
0.31776385309004435
0.907766596850594
-0.4665244904399094
0.38026761039007567
0.25451618098201145
-0.6120531120347278
-0.7985167901796134
-0.6008150650744388
-0.6505610816034009
-0.8242525297287564
0.9708671599646103
-0.5731466267561115
0.2366171510383338
0.9190823932037033
0.2076548108074605
0.5695673847632948
-0.2838640864760418
0.16431640503096118
-0.0362643324250414
0.5300744864537426
0.043811230559411544
-0.3729429394296931
0.5246927368786932
0.2781081374466119
-0.8796408131934893
-0.4958863488016569
0.32095918301494375
0.08227193558777533
0.4758655614627481
0.8147883944526741
-0.5595142618721478
0.7989218423149359
0.09403524441932305
0.42798647856810484
-0.7122100234171239
0.5918142617278552
-0.782677329395666
-0.07974310928215894
-0.02019748931445362
-0.22223499293059812
-0.9741679396860394
-0.3178727385714743
-0.6119301725099808
-0.06058835725397425
-0.7621286536033923
-0.10805898692383088
0.3619539983300184
0.592850024380959
0.0017444606075772925
0.4073733973647751
-0.2882592624626416
0.10182409716073289
0.028029131771674966
-0.2359820564451703
-0.2621228295486417
-0.7599291177905761
-0.5385927123967372
0.3756533648226324
0.24490646279811867
-0.7852424828356472
0.01878927227847714
0.0935261838295908
-0.25687736940573336
-0.6119351729010915
0.8596157744683096
-0.6255614112168765
-0.36826063141657295
-0.5974849416631978
0.37432231946361066
-0.46487000770723397
0.8159961971732254
0.08222828482595396
0.43444373402802366
-0.8749722635684702
-0.29088456661097756
0.19299682027323797
0.865213536731361
-0.3528541494446369
-0.30273029794080186
1.0501771492600562
-0.5215117126628134
-0.13847094286920508
-0.900348577642669
-0.8151337795938525
0.5653321968903426
0.6338513594674385
0.15287931074708616
0.9268058538490325
-0.6780434059404193
-0.45029713590293036
0.5792764638135732
0.03881169535818268
0.5171684054174323
0.315887830226992
-0.26609048022864484
0.3802118047855387
-0.8624154282435793
-0.22691319272419627
0.29891589257203804
-0.7770087118327323
-0.642413604711156
0.664758036418288
-0.8916267753753125
0.7292722572624594
-0.9222962939512095
-0.8623533720943939
0.08873421837561817
-0.031513160081617766
-0.48585070834102245
-0.45845596498831925
-0.2138856938738715
0.4374220091059012
-0.5291689378204375
0.12773971540004067
0.5010115828542887
0.340908008897344
0.3631885978268332
-0.937695307973477
0.8350895498568984
-0.51308180881173
-0.9499362933154586
-0.2173471825997629
-0.33173900451570015
0.16369036351242083
0.28161362677696833
0.28981656436024583
0.25628640906043276
-0.9122933135872018
-0.23052990433298273
-0.8454339956008357
0.49640644131928097
-0.18214016146903744
-0.6282684666485828
0.7311879705284782
-0.8870545551284029
-0.12700686103723346
-0.5372589414948991
-0.8179112585447226
0.18000413413805258
0.006353356972551543
0.9501473845558377
0.11378898324669079
0.3622543261339024
0.8552074525517431
-0.15190959985569014
-0.374314120621566
-0.5472667232640056
-0.2041692012095223
0.0936866786430775
-0.24645592055776047
-0.11146313756146459
0.32768548611246295
-0.8940462197043836
-0.2051442569099925
0.6724831191113732
0.5648306148692289
0.43911726637849957
-0.6773837568113686
0.7211496296516223
0.8181992165387113
-0.35204417168276453
0.273015832353215
-0.6927996332159615
-0.8738631123117502
-0.6332417311451884
0.5507430196143167
-0.8852455306947498
-0.5275692721759039
0.11371709065894249
0.36741928063442064
0.698328814615902
0.753157159079238
-0.6377792287010975
-0.44431944861145767
0.37782231927480886
0.22923994042345802
-0.7010976293161184
-0.8412489407854713
-0.42265792574614525
0.40514210215479995
-0.2016416233635091
0.31142141116324107
0.4175874110767887
0.44836633418027344
0.5538784551866223
0.018914474019785594
-0.35859942143634854
0.5859563197300737
0.6291203184731243
-0.3187617874953035
-0.030702211619988116
-0.3157337519636956
0.2806155031677655
0.6922622852555479
-0.45315771110295516
0.27911090621966955
0.650616300431794
0.4263002197511944
0.4965580619580167
0.6621818828442565
0.0413924631913567
0.5016262368295897
0.5164209761333882
-0.2596096184278976
-0.4636814213054201
0.2128621847052639
-0.06808552114633638
-0.15084977750266812
-0.6326988216755012
-0.6861496777254884
0.8679594782917075
1.0540433354525112
0.760197283534436
0.37693119801192926
0.5586776669466946
0.9106949858188642
0.5488330032846718
-0.17797542084754292
-0.8441964498695362
-0.36884505382005206
0.8657290434995252
0.9958366667710765
-0.33952491018762115
0.48290268511247575
-0.4560964507263504
-0.3620939737881273
-0.1243743773236266
-0.7728677557745035
-0.36854109051441475
-0.6349272616737724
-0.48848090486004686
-0.6332726532890773
-0.9186990385882967
0.11746306650347252
-0.22788100445902434
-0.5728990436237372
0.7529120935697194
-0.6792544550956903
0.8105502303058284
-0.36114568375967376
-0.594969915455618
0.07801510135209593
0.07960064325663302
0.15668135527011356
0.18388727193426846
-0.8619667848218163
-0.6874795020562366
-0.8454670914417357
0.7864097586945434
0.21697561354070982
-0.7414250670270345
0.6199618272264434
0.7092713958619187
-0.664498328360931
0.31062382551076245
0.8166980303551611
-0.45118184119026694
0.8835688234768335
-0.05632545068981948
0.7785902579230762
0.27886978698998127
0.2566677434169031
-0.7998048410132941
0.5773894255261426
0.27071713324171076
0.7185331619836223
0.3341286210798245
-0.6641324033827216
0.31174819106308443
0.676989026220972
0.16749550152666984
-0.38281220338233746
0.005723652250191108
0.030585202801257583
-0.6153362916229428
0.6066791005030994
-0.2995358277731552
0.1000969475054361
-0.8437036704760894
-0.6305844173539126
-0.4689279740054955
0.08449506712052661
-0.11611076462394924
-0.9317930105647038
-0.9257860261270286
0.08798851317211201
0.46810982418019653
-0.9120926653005592
-0.04122872022607119
-0.05147261606792653
0.681919100929486
-0.5394853117997135
-0.3517623035025628
-0.33434542484145136
0.8107029281952889
0.6974908927715281
0.06159324132867946
0.468723933651553
0.9259365619704147
0.5742814693464968
-0.26317296350552155
0.895027009543833
0.5306657162470476
-0.9961335600435162
0.8369103955796812
-0.5604208701644563
0.5409469698182148
0.1853797066589283
-0.4288001148648086
-0.01985158302840984
0.6164393140310409
-0.23930145796127966
0.8369227509171853
-0.27945188179731917
-0.6661242212175232
-0.23246958014435007
-0.6140379468001044
0.6587664477472118
-0.7752692884501988
0.5182619513523414
-0.01988796432797614
0.49706888832648666
0.4037422598487405
0.1461800623828468
-0.7840591724982653
0.3539433244014304
0.0032009294550085156
-0.6790419961729313
-0.04985553670876657
0.40479704296321867
0.9192088489158912
-0.6103037112555992
-0.13752274444245347
-0.3709066025810069
-0.5452460886840945
-0.548535180330588
-0.9110738276102205
-0.9469560475929957
-0.7551575939944759
-0.6640459163708075
-0.41543807464129523
-0.9159849456378878
0.41603712645355495
-0.961227232378391
0.3092954097043851
0.4298164228255453
-0.8756256648816984
0.30557895687215136
0.12763137039928033
0.4022723098820833
0.09519976176299037
-0.48353313790823926
-0.5048599178226794
-0.5990128013360085
-0.5170777589816477
0.4578022618258158
-0.9978285055623137
0.3324083445109378
-0.3485237526098183
0.21973255576328127
0.27544338362089765
-0.07958888878852126
-0.9689288906526025
0.8442896430074988
-0.035574683388010675
0.6188875323910336
-0.637603379658767
-0.8711018975062499
0.3689092057923161
-0.5985133424743543
-0.7811439864619638
0.3639221181753055
0.3826902848199647
0.17566357327535922
0.2722986737287325
-0.2765379012133354
0.3669607205942331
0.8938689195796333
-0.20424093263742937
-0.8731393073070456
0.9264446921752936
-0.47374190449073184
0.9300822713621694
0.8384253087392662
-0.4523343435309674
-0.3562790767968519
-0.02121550506223464
-0.023691212979300418
-1.0192654594207171
0.05539022217254387
-0.8532423157395825
0.08180955588150207
0.08661892074956472
-0.42332439853216475
-0.4976715531645423
0.6782548938700065
-0.3964301356812546
-0.9026167482148938
-0.03801451762723271
0.26601995694162184
-0.28349315634657285
0.15624900238541697
0.32612077552901503
0.45934772755158393
0.12767370538661416
0.8372618996433718
-0.9534948574501473
0.8287074904758406
-0.5679542396614667
-0.7922082263117276
0.6556566303049424
-0.08123811125280522
-0.09160860536240152
0.5965499259606235
0.8501703369409823
-0.8474895759669945
0.4815509054766805
0.28650304782438824
-0.4801873113099056
-0.572279118065566
-0.7498602985757731
0.10420866747360805
0.14899811529369297
0.7093793847307417
0.40178843357186217
-0.37284400360837877
-0.09147300136347479
0.8343040315638055
-0.960021432256234
0.45393864286069946
0.7730395539636491
0.9485632120182628
0.16652818166639913
0.050057070300750205
-0.2661059497103312
0.1661185959087288
-0.4057570409926732
0.74982782440425
-0.004541564719552897
0.6422779228211877
0.9292830727823764
-0.6514596689484793
0.47263292944026125
0.6266960677184505
-1.0349486955158744
-0.6350246901903432
0.6966132738519237
-0.7886529012914434
-0.221041074319583
-0.6370771429538951
0.8387015221626211
-0.3072624051313344
0.38823770853725065
0.15279854125583592
0.16585287596839063
0.752748469512618
0.9465860979240522
0.2368635521883492
0.46431321729909075
-0.22213101321567696
-0.05478862849867091
-0.1967866661735236
0.7724855889347149
-0.556757874459453
0.47542004222307965
0.09758691777884236
0.6073005578040006
0.9108182008483933
0.6743067265379693
0.8390582770885302
-0.33744217484356354
0.49504491495826247
-0.050405375226242166
-0.7389185983255774
0.5382945897156046
-0.996598082335468
0.5376306845783156
0.9268918329225607
-0.4939983567843286
-0.0812156023622684
0.8559437925332432
-0.18630260053527872
-0.34741154897421644
-0.7641868036904579
-0.4670465088033253
-0.5323147923437936
0.3082008460133188
0.6516703620017044
0.4143210475463983
0.25681313133458644
-0.975340629558081
0.9918847954017549
0.5976563746814457
-0.325352253029682
0.18968386285876807
0.9223418749820455
0.33108185120685946
-0.22928056689984144
-0.34042164336581443
0.937321868492154
0.39655538535737395
0.4059751532367743
0.7977551937899331
0.21412104469201837
0.44643504818217433
0.7708560829019684
0.21820232677036192
0.7808148904553702
0.7819196579956809
-0.38557441583358737
0.21142405047169532
-0.07080876596288481
-0.024951823902241595
-0.6686528441664673
-0.24872759600434172
0.5088174054847934
-0.9967817438898586
0.37105683143271273
-0.28704830390421915
-0.25795127389726463
0.45201011091244886
-0.9155465381126531
0.8590934206645954
0.6862406916575801
0.12202840340705635
-0.573203542590322
0.7982057843677549
0.9930259386038733
-0.38818020009744303
-0.4449635615968439
0.7706947305218225
-0.6039842455878083
0.05619087818650986
0.861411174140565
-0.626532504876054
-0.8195542509517431
-0.9044890013485805
0.7670033297821931
0.8338890561405928
-0.7860059326795583
0.49497244106308425
-0.08603828785151794
-0.6382198661693774
-0.9592736837908199
0.0898415089130849
0.06489097513956028
-0.14243230186709693
0.19709921595445656
-0.6049421880451746
-0.44089078753189387
-0.1677585181470375
-0.2269491848929832
-0.06382405664941639
0.22149603926832745
0.8500073406062194
0.6359671665008944
0.09030667357172949
0.7692151993147759
0.7114342982643244
0.8060981102014454
0.3089931443948754
0.004364905532461646
-0.028995834877258864
-0.46016696344936064
0.5937140945485314
-1.0197217831772885
-0.6334203481416674
-0.09202565907058494
-0.05541174451276511
-0.7303437630096002
0.009543601358721177
-0.4010825265007943
0.9786992958915008
-0.11131975662657982
-0.26288407761226285
-0.023571328839632696
0.9324964415577185
-0.7588472729737495
1.0848475634726689
0.7025705273595827
-0.5604306508557311
-0.046739487586947265
-0.09437834785701552
-0.6537866177179604
-0.3704879683840238
-0.04341016803963383
0.4142133211736335
-0.09533088577071576
0.5170541376983808
-0.8350248834867763
-0.019560624628715648
0.2803472695781119
0.9893423746561998
-0.9347972671804761
-0.7574437075980821
-0.4219201144164375
0.620956561290757
-0.5931955531902878
0.6911678398611183
-0.24724557224716914
0.7765548761116078
-0.630908783224191
-0.3908469228698429
-0.6963414540879087
-0.8977439736268215
1.0561337231309085
-0.6683059629629382
-0.7036878273598028
-0.3994758913697989
-0.4487812438657789
-0.38271882200340046
-0.46958363423185884
0.19578606730369244
0.2718056945407918
0.4539946772868424
0.4945526668059177
-0.10805413402869514
0.43450315453542243
-0.6414576632333032
-0.07321891212842406
-0.6225077686185697
-0.022232294606273923
0.22801091884613944
0.6102311767182519
-0.3520772973995
-0.6392001588628834
-0.4180251297945357
-0.571087862550525
0.7583140025042499
-0.5529485762670125
0.01477056654924397
0.23648909510163246
0.22105024643311963
0.4011529114457505
-0.03549432603429418
-0.8867171881499618
-0.4636287074660018
-0.5490887901251768
0.6747566946647159
0.22461953164099366
-0.5027572238535575
0.5131221246438564
-0.7360204291296157
-0.5429943996751528
-0.35669124248828105
1.034085966957946
0.3773594382620242
-0.37254283996933996
-0.7993507745400731
0.4293644018614614
0.20210598118387266
0.9491654362067902
0.5195408532927184
0.6557727892509863
0.5577533886981157
0.9736740824035415
0.5977012418558053
0.5984498196835897
-0.7662412812834833
-0.01933758700466558
0.3142088960690696
0.8204058804196208
0.9434633978862418
-0.422682988465453
-0.7202459713427571
-0.6609936020835525
-0.8606371344472097
0.1232341745347626
0.13957800579427224
0.637690495911253
0.792884202182097
0.38857438915067305
0.39360780394170164
0.9044447227718535
0.38130373440722765
-0.8790822770925145
-0.4680780353948401
-0.2116618880496096
-0.23493024906978335
-0.5968819166963975
0.9201531332052441
0.6657000391146184
-0.05606068522795944
0.9809495914306432
0.20392137888541514
0.12596496654263592
-0.4374648623126465
-0.9962215455310559
-0.5287135411825482
0.9827550133837045
-0.6718019077425503
0.7123364157174887
-0.40382403217324525
0.4776284033000181
-0.7348990671797827
0.206632499067488
-0.7596347649630047
0.6599316823554068
0.49593637662196466
0.3484891483404797
0.8066000029898934
0.6866525328970523
-0.7110620574821056
-0.5055970280916362
0.21578240998871645
-0.06181042858726944
0.9903634145405117
0.15987149625892252
0.13400235194413265
0.7625168301903518
-0.1926002363114647
-0.7390217332429806
-0.4482144706418216
0.46339705415654486
0.008535729488325391
0.8085469513045389
0.8858398856569234
0.05625121531853228
-0.4282426562078562
-0.9293333025418397
0.14076686738001945
0.7308153872978441
-0.22760257458842637
0.9646107843193731
0.9132786923852872
-0.27613610167946906
-0.5876467818917016
-0.7207987295417172
-0.16460689932531916
0.3565411729796608
0.4008549087783216
-0.9484949937997774
0.35074830955812186
-0.28629990997880905
0.2641532923232977
0.2884069312891423
-0.3829606333489247
-0.2252384956398575
0.6541820630720734
0.9427790436930917
-0.8356761782878669
0.04112728849811401
-0.19194841848983646
-0.6595743139165973
0.868852449778039
0.2953287004757851
-0.06667057730589848
-0.008854201641183465
0.263784866153514
-0.7698514690143139
1.0176311659719253
0.6189326949258038
0.7880682951276489
0.3071074603125332
-0.2795305491101468
-0.7316896512624642
-0.7712968719111848
-1.0207659607162338
0.6237321291720386
-0.5145234026503194
-0.8782317711936831
-0.6953134995593822
-0.5659205213302029
-0.8062421137061091
0.07828136957515242
0.5655564090022512
0.35584604075192905
-0.5257970656517806
-0.5014320233516077
0.6670076732270849
-0.6365912092190199
0.2802497004519895
-0.46518335527501026
0.9298550255594666
-0.8717342909591392
0.1448459610498297
-0.9631935354960698
0.6464102216049366
0.6395552487462857
0.591979006322328
-0.7425976430804784
-0.7449158429229671
0.5120855418680185
-0.24929330280669854
-0.9599955503250529
0.7431273674268675
0.7684235550803221
0.8969572139739209
-0.28856909657241586
0.8152311458359316
0.20357662350042818
0.459266112678929
-0.0625146426577599
0.5115002573122502
0.18704771397532682
-0.024642722953719637
0.45496980672992987
1.0576625086697484
-0.48369276521305365
1.0936997141598273
0.357053815780753
-0.7014140472442923
-0.7081195270767843
0.29110936953127187
-0.8250025429186443
0.09085313797753249
-0.23638135253637868
0.2998011042176318
0.21311726193833536
-0.7222156587012057
-0.6174451494134825
0.38360744009802633
0.25149885621811724
0.5724298892629034
-0.16761792591211078
-0.7376109045762959
-0.9616006189744842
0.5167810428039142
-0.3176749491448305
0.9562051839728335
0.04851069511453421
-0.5570662440655625
-0.024678837395041828
-0.711033206880271
-0.9444516494863557
0.8069317878838245
0.3812529865469748
-0.45661896539183283
0.9637039383010695
0.3499800560837883
-0.12831063587936137
0.8279031173275596
-0.04069281159273356
0.8209559409567874
0.7480157440887057
0.12455871728422223
0.8139965842227981
0.8177627918874487
0.4484329599779672
0.3704623279785381
-0.8862581422219405
0.9467839307517917
0.2144539729414932
0.1499295548636049
-0.5988896153521792
-0.3745451048799842
-0.1565828151640053
0.1285798209394754
1.0826024108735997
-0.295947917385865
0.4815505107622311
-0.5366454811964995
-0.14221605877265575
0.2330579559181605
0.7553319768157727
-0.3783243600856476
0.2983302492339811
-0.8375362583063696
-0.13503162644617855
0.9866439836649246
0.9935137437788792
0.6904019974274195
-0.2754143030283811
0.4532876859130204
-0.890659956268563
-0.9753661713552814
0.6118933636596962
0.39669741898869315
-0.17862446633868823
-0.16890891938243935
-0.2170984047968024
-0.4316167192192381
-0.03582134844115118
-0.18517806772083212
-0.746892730012121
0.9164721754114167
0.43235209195747104
0.1762849744298512
0.6997149406939556
-0.6928539697527175
-0.9163337409489339
-0.16909193083838958
-0.3148928194607442
0.007314434905556615
-0.47234415611455793
-0.9617367558533355
0.7902599439691795
0.14310117392731508
1.0005834085135419
-0.20837559433430852
-0.7762502763622875
-0.657308531254413
0.40079836229243204
0.6521668678031881
-0.8596054396769653
0.7325404996552449
0.12496316224804162
-0.4584566443491173
-0.7138064873005678
-0.019840250927846564
0.9668463598973811
0.7519183881780567
-0.27440811034379625
-0.6891427185133367
-0.5655653438918276
-0.06673508273541073
-0.06543007743164093
0.05418663505276225
-0.9024707157228568
-0.8779641032407642
0.5522368492145168
0.9434412636194783
-0.4879667472158076
0.28560428020171025
-0.1735753196938059
-0.8351523189330226
0.42611104976480707
0.3275216144579029
0.2921027160359574
-0.9030898903083023
0.04668215461949882
-0.8054340193780897
1.0727893223461438
-0.6528421576811926
0.7350182154956767
0.6750334577773155
0.5367559139038145
-0.8641109157065385
-0.49274441229147586
-0.7329807759313834
0.281343747017058
0.8913463755094212
-0.07245316979888586
-0.19269961764246896
0.13847921065329089
0.4987845401899795
0.19543325421559476
-0.6733034705574882
0.8058175944267868
-0.2298392235757707
0.13714108739232755
0.2756849789993746
-0.22026526335589572
0.7412812971488665
0.19060059525318182
-0.7241285878605327
0.45117108195545264
0.21606338769338984
-0.33733413433650566
-0.4683325819843074
-0.7846965367222799
0.19477385152279675
-0.607926231963604
-0.5403359908793127
-0.41465042035635646
-0.6042831957770464
0.005041744384127574
0.6715823758737353
0.09417337282173847
-0.15094675616497905
0.09522669460570928
0.6960873897210026
0.21598777084102022
-0.042816682994335276
0.1362514367329931
-0.22276462322676252
0.47763222867109634
-0.027739045759159028
-0.6253450943369439
0.14377083819368364
0.5334848560870792
-0.3627228234418508
0.8943020616699551
0.7158362399953092
0.7553881721226113
0.12944416010168258
0.7476531315239983
0.3404617221687311
0.32316815574306634
-0.6841169256859294
0.4293495846473152
-0.7801381453652997
-0.7932298964417854
-0.6502047400715407
-0.6172322888569932
-0.3625984077246957
0.2946476808610324
-0.2397994150923146
-0.33650523385614073
0.523739530459891
-0.2834929907607135
0.7639160295297669
0.17838123520971003
0.9847319588445853
-1.018175781795963
-0.9890687385872526
0.4961224061529562
0.31003017878982353
-0.8788566696977849
-0.8027914480756909
-0.20716657647499817
-0.6774416534769068
0.31139291575500044
0.22027790079297047
0.41236783408263183
0.7944326475362629
0.25155524929490375
0.3518042786420724
-0.3689739818841439
0.8629026151260228
-0.942291922470413
-0.9350626527933495
-0.01793781754936974
0.8399318823146104
0.4415006960950988
-0.49543715382669523
0.18678526363320586
-0.047274922328852276
-0.7655308538235945
0.20355880207332083
0.3936239694986708
-0.886372408798302
0.3445972485680998
-0.840512959908638
-0.8831309308696701
-0.17183458455865547
-0.2135159173755341
0.667598712221428
0.24507858174820876
-0.6545684135318073
0.06000794215542575
0.6809995528076837
0.4039841982607917
-0.7010621999360426
-0.8412691510628573
-0.8417225097512079
-0.21052864799677062
-0.5679682170426528
-0.404086448902871
-0.9430786903088242
-0.1270169640565363
0.2537952074849615
-0.07579775768302711
1.0100626674008157
1.0270130104874506
0.18104684375903335
-0.5224819524883967
0.0425203976683805
-0.7608940005708291
0.6502655370655979
0.5284459647036456
0.06729922071304785
0.5199678835483403
0.8798642779937713
0.47582175596000925
0.8387336950521881
0.7817604601495521
-0.23848641507347376
0.6279145435095231
-0.37370928999577235
-0.5595347501969438
-0.9505647316967081
-0.7903340199946316
0.9989134579028276
0.3276137053833312
-0.30377861704512676
0.9145366757785639
0.9013596896301432
-0.527229937112303
0.8986322168912295
0.9293781481550834
-0.5451740640082662
0.807819866751849
-0.24874468731369165
0.7557659415543191
-0.020460354952342753
0.5395912962769244
0.744651598881913
0.884361860327001
0.4709971779029926
-0.41434145548161383
-0.5578832329691381
-0.04018858540929661
0.032933938718511094
-0.7595759793740541
0.567413101942025
0.30043232287219274
-0.5792513631934447
0.16494574561903252
0.1725923114458405
0.7796793424426033
0.1739405079780401
-0.055244422106585526
0.4908734821361038
0.03786448673421327
-0.2669853220496324
-0.3843130393472486
0.6917788802237079
-0.43443851521059274
-0.9232443574791102
1.0011354039544147
-0.6656466811601831
-0.9284927888670202
-0.6946706921095981
-0.2420902087287328
0.8619875084954686
-0.30655604412865517
0.4407513528009156
0.8977612837516434
-0.13109021376356675
-0.901301383024392
-0.8392945419213781
-0.17472465855292482
1.0247494683951794
-0.8689877223530589
-0.5653731187819659
-0.7549544797669987
-0.45276008456692274
0.40723829693850555
0.9459208662549098
0.9451792697112994
0.874165807807058
1.0006434160136517
-0.5253914181990008
0.8799835648529482
-0.47027326523134927
0.10611707728842502
0.7165780326425841
-0.7980392250062204
-0.8001437035775303
0.3100033437555129
-0.49896277264511607
-0.25212860293746875
-0.8719712348313712
0.41760607713648773
0.30661482314819777
-0.09478739593744266
-0.8648481622556666
0.8492732534287656
-0.3146760068947912
0.9709601612906452
0.23804847115525343
-0.36738830493737823
0.623756387289692
-0.6457448570977661
0.4811846141734774
-0.3242369892110809
-0.20842729242926258
-0.7404106622394641
0.5593360994589329
-0.11292897206301455
-0.9896468404099015
0.13567684546886136
0.31159849388562944
0.24380341811585918
-0.20344772220346524
0.8468660887754895
0.05994420913512092
-0.7406832628239988
-0.49971203473853315
0.6536739508009207
0.5292607452334898
0.09499099509193588
0.5557032618022607
-0.9311798719555915
0.4692448163763192
0.27117622325139473
-0.2068149297124122
0.6619743909223749
0.6926430634983269
-0.35733977872280864
-0.1129080027524815
-0.39494208733907127
0.9848866035994412
-0.5851990838431772
0.08652123354835532
0.05100951671380094
0.05978174810969631
0.5012067261253715
-0.2639555222642315
1.0239119244869723
0.71469412524518
-0.48076624661752215
0.18901541521864404
0.5204346602116237
0.9556514458117286
0.11389667500179985
-0.9129729244842797
-0.25660558062273076
-0.8193797692404994
0.8370008666221108
0.18878607749365195
-0.39546007276865214
0.020282752874614087
0.0463702529334044
0.36007505221598607
0.43091690650285075
0.1353537911081958
0.6757648623833936
-0.22064987819422835
0.6033729947385941
-0.8723797517323707
-1.0049916351997246
-0.1565718926681359
-0.668377928842525
0.7532973595228797
-0.3636938461630105
-0.3161333896224308
0.25331101463680084
-0.4715335540149872
0.7492402455648902
-0.17569108204283376
0.2584141904076058
0.7115041654755236
0.35186630344033604
0.18962016726290712
0.8708657441968898
-0.4794173726465321
-0.17900661474348684
0.17024869428866232
0.5695308344328714
0.8544772102023213
-0.6013378941037584
0.3449755899083238
0.7126781101476695
0.736069326798959
0.7773301555207007
-0.8694024207133362
0.39957765059166717
-0.8744612986693558
-0.8200980035493373
-0.15728503734089067
-0.9016472124739915
-0.30111486775276747
-0.1848949955384027
-0.2234022211536825
0.18801134781556034
0.9887472339441801
-0.2647032788595635
-0.5053665183085548
0.5588577113301518
0.8697707961081476
-0.6114436022854689
-0.08624005706344803
-0.07684626529934556
-0.19777401967764263
-0.34235473043707954
0.4713742124285343
-0.37164704450334285
-0.06112882693513096
0.7872760049577178
-0.20874167305522973
-0.5026445017191392
-0.1330036320274923
-0.12558444448139183
-0.6613593538040464
-0.8257140213621941
0.6289170549363917
-0.4323281958540048
0.2423583775127508
-0.6404752039661459
0.5083834601788191
-0.905849268647332
-0.5943311966704052
-0.33346581029985
0.5925702126523401
-0.136341313044251
0.8087746610864615
-0.3402977430818882
0.6201162461427331
0.8803247910074377
-0.39379167754924804
-0.0739922794991208
-0.2748198353063639
-0.3617200763749757
-0.40896751013110794
-0.26579186372394775
-0.1483923616964736
0.394680854798447
0.8374121201958917
0.506586527093355
-0.8802823883080296
0.46541368440861214
-0.3725098693260559
-0.07919802041465515
-0.3648067285916164
-0.6582469938743464
-0.5271608543239575
-0.4177595394469003
-0.5076363886617741
-0.6667540159928846
0.8452447371160957
0.687369729610026
0.047869693833071575
-0.613523709984249
-0.5079546873364087
0.7003503525566533
0.48613243378416265
0.13302527783622486
0.6279197960973056
0.25020731103464455
0.13996999157774878
1.0246393085724002
-0.12845689690429987
0.4203564007148999
