-0.32233560768973396
0.25740095502395133
0.20897750933904058
0.8791225205110903
-0.25341565835338264
-0.3713038745463527
0.39807409961175894
0.873864512787463
-0.4700569855995111
0.7124271486230337
-0.3692755108238138
0.6105058894579507
-0.4720865664911071
0.21035239113161971
-0.04003639784758316
-0.6812533435559361
-0.7815099068111152
-0.5109984146029182
-0.705955646002314
-0.21413505265849106
-0.034931537931274105
-0.9329170808653512
-0.8710962744647218
0.06423766510671851
0.6060843379779345
1.0006276771437022
-0.4675459210734645
-0.9154683340644134
0.08000615113780571
0.8728118547958771
-0.7647639467975464
-0.547558107186683
0.7566690885414435
-0.5659293505285679
0.7826940962224589
-0.9736433288330338
-0.7676028114186082
0.04309649087381924
-0.8352318712604379
-0.3212271008288908
-0.056581130790756905
0.42267468654093615
-0.4408414781553807
-0.24512870909295983
0.9684656027751971
-0.5347228955321613
-0.7123442400892774
-0.22409158279513677
-0.825149960955924
0.2759768613986865
-0.5186221399606099
-0.805779984331223
-0.9462808138325215
-0.893779904368807
0.6323319742313708
-0.7662686115776981
0.4828701156458287
0.3113619578783853
-0.37084545531254004
-0.9434517755548341
0.9368570950546556
0.08158868036903648
-0.29692779239058936
0.015526309738477006
-0.33161448218228096
0.2982919691913915
-0.8005991374450326
0.9789677392656423
0.8348205669431561
0.5996937848720733
0.21506451889067177
-0.5791546253538082
-0.28265302753097526
-0.4678723593717246
-0.3878335099941916
-0.6736571124533496
0.647070734435997
0.40816623095045423
-0.8796358366501444
0.6481083454285839
-0.4491080606018457
0.5249782829681043
0.022344483839298372
-0.1724868925418739
-0.19035628759303616
-0.884779070137099
-0.8960005846962712
0.38561924610078396
-0.7144557827830518
0.799727355750425
0.4501851490882511
-0.3344261458021143
-0.5550335072142893
-0.03875963312821437
0.09310263404447071
-0.5606278524367799
-0.22585546707236
0.8710994207132272
-0.5779581759916677
-0.8140134881710552
0.8055564602803442
-0.4020851671522475
0.8707040115390737
0.691930956696708
0.5777502698379233
0.8461104785323276
-0.5563495132265955
-0.1828731447480683
0.43611706993305316
0.33379299266446044
0.32710744323401253
-0.7497755288619763
-0.9801901789940785
0.6824373216489831
0.053440006320226004
-0.6593233696831083
0.9840619434362733
0.22631506855104874
0.434031506605089
0.2646839916866856
-0.38824346193950593
-0.3818948647235164
0.8653718893810702
0.17044928662355222
-0.9394000371013773
0.850203369194164
-0.4800281088788106
0.1948989775706928
-0.5413523968811682
0.7499550400140085
-0.6469942706642995
0.7605966522441584
0.31810997185272843
0.8772778917928281
0.9443281890309846
0.013301241454187103
-0.08077009376709096
-0.6422623976322633
0.7656045996637344
0.7643125304156708
-0.15295997417288437
0.2740883709974045
0.6483351116835012
-0.8920786380822848
-0.8718057799748636
-0.21157858891993994
-0.10910932901623836
-0.8928285615092618
-0.876378528516796
0.40843251645562945
-0.2300754946478316
-0.619441413746992
0.6584296791532328
0.6822050201902291
-0.9009363709124957
0.48082116272113956
0.7889758213387325
-0.24932142985101372
0.793321227920551
-0.6662396942795809
-0.051251965968724014
0.2831494802985221
-0.5607694270002189
0.6929758361712877
-0.6760170137611061
-0.47491941410416905
0.4001412508198668
0.6268740445664333
0.7848253138539845
0.5449917793905252
0.054323066327559344
-0.8890773767273843
-0.06577477421934953
-0.0481348437381139
0.471494291950088
-0.15788223345587404
0.37823004448351627
0.8888942745915519
-0.1186969131640882
-0.3566265963237954
0.7094962903089744
0.43686494891712374
-0.5587747712044592
-0.9904067922970416
0.42100674754945006
-0.7828770789459396
-0.2902626150563931
-0.2825504809368293
-0.5827454821803266
-0.590744951818298
0.45878023486997105
0.6409970881278307
-0.33119386851475086
0.18200772683497105
-0.2327160420463866
-0.5001217877831146
0.9918711003119165
0.12110734344332849
-0.4628322964239617
-0.27479017564699515
0.3105014624145554
-0.8611308118911827
-0.1675549738217546
-0.08413276841749172
-0.08882042734228396
-0.9425846983483319
-0.860952118083596
-0.4518259861961384
0.8078532399902381
0.9303053240698611
-0.22053691660915717
0.549327197214254
0.804998532554493
0.3668326735957693
-0.6186978851323739
0.7046202762351677
0.4128962612190557
0.7927061938487333
-0.92987623320388
-0.7275425283808522
0.33929739856685803
-0.06545045569750566
-0.6478126903687146
-0.7674896520400345
-0.9732255621447984
-0.2771923491229635
-0.27474133351011065
-0.5097038583531543
0.5686244556813767
-0.5591784345682879
-0.34054118283560464
0.21199705268815205
0.6622931048291305
0.43758077756602487
0.3198310693839748
-0.2281059512689906
0.12521448310035457
-0.8806599710576934
-0.2545546756761292
-0.33876611819855007
-0.9381816838846061
-0.8126043968886433
0.5970195537453371
0.9519125716665038
0.20196006277584197
0.5005308988814221
0.04651242077148586
0.2768542155662334
0.8495198963760263
0.8658494307436624
-0.6416248626355211
0.3683916460088549
0.7229254371387029
0.8478377377856419
-0.36667353183207435
0.7135422404274215
-0.1830748728473921
-0.5830966550579801
0.0641476432496862
-0.6500000515789242
0.7861917605275902
-0.32207502077686584
0.24469304999710725
0.933692108822053
0.5494493780462826
0.045778256121444254
-0.24367436520518
0.5690989519121568
-0.421609314361619
-0.1510660804860068
0.42686258964422236
0.3490358594623654
-0.011165467886588235
0.15710080312970554
0.977677540116023
0.43510752472545877
-0.9545843472351294
0.8605360684076211
-0.11748966223532267
0.32290103510547863
0.36752284634594584
0.7606964936068759
-0.9674252826852524
0.13083549802938763
-0.607710621531405
-0.2423578724907218
0.3876762550275125
0.7970516403676617
0.9711830160371776
0.11776608775912747
-0.4964598545171348
-0.589542690419946
-0.2511344496144877
0.17378606265530555
0.6229442497935227
-0.5114706435161666
-0.8951282017361779
0.17507215427687217
-0.9013408727167873
-0.17679236712569596
-0.048649753216548054
-0.030416966847570677
0.17874528182826813
0.38884671910481766
0.7014400450107076
0.9742720865044384
0.03392402347416055
0.5143715135661272
0.9906229127719002
-0.8452083859652271
-0.8533026560577228
-0.8054557536538941
0.21350313369429294
0.2815340822283218
-0.14254358367174041
0.16910201506828595
-0.9620860192600936
-0.6224624705877319
-0.39866068701454144
-0.5954177935418394
0.9370362668784216
0.6931273160877804
-0.11022154756863355
-0.675908677099362
-0.6665646564714338
-0.37497020529369735
0.16342048920362864
-0.6031907322647263
0.37025883488296313
0.4534955943164228
-0.7447969321914437
-0.5266292411689413
0.10884183748507521
0.5892282496790163
-0.8566059305190807
-0.4766113203960016
-0.7946294658882489
-0.6820719778724562
0.7355586451295144
0.5029100979340602
-0.1574296342030648
-0.7451649854250331
0.4528679917960396
0.55360520209977
-0.994060100069678
0.6921899701272705
0.3391190402996594
-0.3852725369239089
0.9595909564418678
-0.84837853236537
0.7543935102704147
-0.6690219803312704
0.4807963406290069
0.22674072137047
-0.21313048318695518
0.22457443468718727
0.0624400435648336
0.8250491896193576
0.9249066231441414
-0.09211253917629417
0.27994269818137707
-0.8370031662523325
0.8293421897660725
-0.769529210219153
-0.863432469864059
-0.9502023028421905
-0.5960427055508785
-0.6365586999378534
-0.6270705771309986
-0.1943271113167902
-0.25428471555197313
0.031097679010089425
0.7173826412703015
0.16959254354003714
-0.3874102840004553
-0.6805903348535951
-0.14884451955742672
0.2698317011291068
-0.25983375821705024
0.677941276488167
0.3885250976745655
-0.6400496378208127
-0.12591266587242872
-0.6661009804449387
0.04944282304167599
0.6312698473081062
0.56845334596109
-0.5550773232429286
0.5239556974793919
-0.13043016700950014
0.8358089696307202
0.23323990044477672
0.08083840824325232
-0.9325596037184783
0.3800488919738365
0.35406353767400683
-0.15323045558746504
-0.793525664864005
0.28642483868580315
0.7383093060431264
0.6539639021640853
0.944911242249043
-0.18373743880735394
-0.05677011850486509
-0.35841203024714896
-0.48991714123447266
-0.8903449864167392
0.19243903850239205
0.10931211487230595
0.3062928966632171
0.5477150736671123
0.7588910142858415
0.2202995794853564
-0.281133519986784
-0.959003142370649
-0.20091466386105794
-0.42918779502804416
-0.18428747205202192
-0.9546180836393245
-0.2954505127007631
-0.7562713390450179
-0.14241238658010727
-0.6235036347678363
0.3425637769461476
0.29762218792671413
-0.3371326804382548
-0.9190254761793502
-0.018927272970198594
0.7734570486675687
0.363907209962049
0.1818551621529517
-0.3873230014137967
0.057526321248401
0.4757002359855892
0.6216842467166316
-0.25613985813104795
-0.2629168927270586
-0.5475773406393367
-0.033717253938953744
0.6583623938152185
-0.4202273143683666
-0.3065971467643657
-0.5107349682755573
0.9546587443481427
-0.6902847792785418
0.42664031413659387
0.4881198114010119
0.8378313640643916
0.8054040536309265
-0.6434866796049684
0.5939137577678547
0.786775581196888
-0.9084971174082533
-0.8379096119411431
-0.2426334035426399
0.11031053826008994
-0.8258287176196788
-0.032939701226526216
0.05618473291691289
-0.02867537102609545
0.7622315609998044
0.5704524246999608
0.797017125644688
-0.5791302811323873
0.7908497810818561
-0.6614224596012421
0.11389512805768158
-0.4634720538361271
-0.16575569459827613
-0.791658989315029
0.2144158536868602
0.48282819864543125
-0.7758140872566525
-0.08120378286927626
-0.9900780836910971
-0.8193594115400085
-0.8229156916930148
-0.17472268568768054
-0.8739971653724351
0.9278312762910466
0.14698282727672385
0.6500091264129617
0.7394724913258629
-0.28125307658634047
0.14731725371567758
0.10318233930537306
-0.433230771263109
-0.8183506901852675
-0.31865865451489456
-0.16976464552051768
0.05059987688234236
0.15768242864173926
-0.10683195632030695
0.4710281778126704
0.001022091092670306
-0.03749366216968673
-0.7002016223279705
0.04928913036370729
0.40127909279213025
0.46339891203099665
-0.3784596061839424
0.02839819917020581
-0.17698897992105583
-0.2602215506684261
0.349333960340736
0.6265241661492084
-0.7961875027793338
-0.3367413310771736
-0.6497530003769714
0.45546007358505325
-0.4047110081211224
0.054699496298385615
0.006165308464896164
-0.4285867427298661
-0.7415308616561151
-0.5071035077917305
-0.8707631062448945
0.19401380118701084
-0.02322087161294541
-0.8285767173275016
0.9046530981763498
-0.32799996776770174
-0.30880286810304597
0.21370391225652102
-0.9330007817355376
-0.3430838354177481
-0.9087475327385859
0.7793401272400018
0.8700037206256318
-0.3900179050926508
0.11477398467449967
-0.35140098406990633
-0.6764481102887222
0.6344725263569491
0.09643986852583301
-0.7408029305254066
0.3021599802543899
-0.41694526012381133
0.3866856446081512
-0.9199608638723556
-0.8679872682655794
-0.3263094866831254
-0.19234279459626538
-0.7085336570174025
0.5877227934579009
-0.3975506044212654
0.8362227631990321
0.23553759060035404
-0.7314165961375165
-0.14136872186327673
-0.5913521841186553
0.4128594656694683
0.016504938504596736
0.8026344947952277
0.20971900410805042
-0.04829279898642368
-0.0044564780074016035
-0.4899009572400133
0.6099446007280029
-0.957750211348673
-0.29594523956233093
0.9412450103320649
-0.7367411821867872
-0.3446239580899555
-0.22772654728004083
-0.8094873604817564
-0.4251226525043321
-0.32546867034555416
0.7192550674910142
-0.6739235409537503
0.048621803189307825
-0.9116748280574882
-0.22501883551827512
0.7267504429975662
-0.9891635800534099
0.979159491670928
0.21994136116454213
-0.4487039423233162
0.13337922621344422
0.8944012297308732
0.6843401462351835
0.6492928361628117
-0.3211546620300344
-0.7835110967426446
0.7729540391555684
0.18578283090633624
0.6909304334728621
0.13526539880327137
-0.2752345826992109
0.5492230944329682
0.6440990181795984
-0.09230322650325991
-0.48449673302261403
0.7534242139522292
0.5666944342108106
0.35871114822195405
-0.8941187212907276
-0.19669532192646252
0.5331984660400552
0.9367359653482555
0.2006937201903423
0.08762515855794178
0.3001715365923552
-0.6131440502092309
-0.6527582592101839
0.37165662990045717
0.32944416820307926
-0.6880536328343824
0.23213686760579635
-0.3444875236558853
-0.5780341347979568
-0.5806849866295614
-0.6621746460917369
-0.0316456031105291
0.704497895182198
-0.3705191313668672
0.42341891214638666
-0.2630243730832592
-0.18923446316535453
-0.21025923272653887
-0.34399858147463913
0.28659064741273105
-0.3942872565042143
-0.6058950313711948
0.5503626995936287
-0.030343122683458738
-0.6356564166548979
-0.5243551996434819
-0.07960583551756824
-0.5201317245259989
-0.15809980498324017
0.24975896569289344
-0.4887851292538462
-0.6103862094233445
-0.0763210544928621
-0.7208960526537486
-0.03664873779383148
0.9454214421082762
-0.21092625593122724
-0.5108246857830446
0.2442264170411517
0.2724124166540161
0.6814815561374677
-0.48714939279534214
0.3416020832836
0.2814551538630558
-0.32367658605515026
-0.31892594957148723
-0.8084842472313005
0.09379759787130479
0.06387988392157014
0.019477726174520295
-0.9660727735250626
-0.4703037739622695
-0.46793201762625186
-0.21923121140952334
-0.7433562862379721
0.6739879092193342
-0.05501158545538594
-0.5539657445925509
0.8579981449757846
-0.4139745425897452
0.40773040080013634
0.6490401675151407
-0.6932938130390921
0.056601577946301856
0.8084562928146315
-0.2396041613316809
-0.4557454198497722
0.9705179493228459
-0.09241980946182883
-0.6587667605507845
0.01670273021108605
-0.9877512861864021
0.24262567924586123
-0.2711976730371961
-0.08873672218060226
0.8563989719569656
0.7225226311748607
0.14878693662506304
0.19770733301736237
0.8849864253417175
0.47645164727146666
0.31842829808626993
-0.983133174948103
-0.7022198606776363
-0.06334138636336259
-0.5193251710715854
0.29757923834629285
-0.5491467105744872
0.43246869254382775
0.8827184648061328
0.7826042721132769
-0.17514162130275007
-0.8866563257881617
-0.05389428332268909
0.31735079890410367
0.746738867667721
0.9711562990702
0.05120752208797538
0.08882275506302127
0.268338332703817
-0.2723081159258529
-0.5531851678231996
-0.24236945972646362
0.4360322542459856
-0.1434988921998037
-0.769561225136391
-0.2513038199074396
-0.04695206572462435
-0.946617718760226
-0.24865565750465068
-0.05694216775596026
-0.4463758520222571
-0.08884010203555232
-0.5793812120060258
-0.8390534438426106
0.11028176242139832
0.03057552250267613
-0.5980087095404758
-0.8485948650884724
-0.6653322170055201
0.11036508409245195
0.5186138277911254
-0.56419874623493
0.7200798276139097
-0.7864763743004417
0.26519330194781354
0.05654276461352915
-1.0002835527181007
0.01866139224315828
0.6805363991034898
0.4597617030810498
-0.46843872241960527
-0.645396313392829
-0.24098744823184012
-0.987686930544583
0.18346343144074045
0.3136456288729786
-0.08147255922848477
-0.11892009491864423
-0.42962742259222003
-0.3005235889059016
-0.9944426152465513
-0.7110033906125242
0.622869591424012
0.7361596055653943
0.5549689648969506
0.4432350347296947
-0.14057738801920772
-0.43080327480486724
-0.17033677534313751
-0.8026646334366547
0.21230863263820823
-0.6828242063556901
-0.35111845099899447
0.546480654627642
0.5624602346303267
-0.7183513138507861
0.02184380783629299
0.05212839767642201
0.7580995106328281
-0.8539187249047123
-0.9508823604505358
-0.3716389098689293
0.4306321285301372
-0.9841738469599038
0.7518696412635911
-0.11465791690483715
-0.4103323019188014
-0.43176450405218214
-0.8086861545127022
0.15550653790946803
0.6791948592686526
0.6409210640321388
0.3816035591964139
0.8417538317704913
-0.5364608053728932
-0.9054345634648554
-0.7030699619235323
0.7733171841253379
0.14123280082028306
0.13859384668344324
-0.19083887060071567
-0.7089637821379781
-0.2720099021748137
-0.206261101820137
-0.9460051463466362
-0.5023415512985648
0.8991622569256398
0.6226628377973398
0.45300388061119656
-0.4710922997775851
0.3916142940196609
-0.37649161456802716
-0.5092682862112325
0.4514233512191765
0.2074547300074044
0.6031540009061912
-0.9950881347670135
0.975964522586041
0.9504433647704597
-0.6289888323098936
-0.904266619953764
0.03724809279638233
0.9007211264893319
0.49258835346631125
-0.8926152221891707
0.9636969232761969
0.5876997810407039
-0.3691983821557877
-0.11724225034316704
-0.9762284040423963
-0.883832782529509
0.9606075340945813
-0.974303406136204
-0.16006381646320159
0.6971328687223178
-0.4547687114441962
0.4555175179091485
-0.5411989643048786
0.5015646105012173
-0.8075314395729224
0.5973810745887342
-0.4140486108237619
-0.7482806171181595
-0.2213083375225514
-0.16939396526654088
-0.06325157727668337
0.765467266824258
-0.26427257026625195
-0.6049720390480949
-0.33836808922304035
-0.9187306030378529
0.32936982236930773
0.012317627191599081
-0.944554286082809
0.758494868483699
0.671306709162166
0.3985594818018823
0.21414185151747292
0.44379214518929716
0.7185879852365976
0.002561314534364544
-0.465702353659425
0.8395221793670427
-0.8280601718092134
0.15988477827775704
-0.6100903418932473
0.997117964273514
0.20319890547509306
0.4468420968524187
0.035217699079060784
-0.19080524114605707
0.06334371044414368
0.7796229493731905
-0.04264030010607068
0.6912549829119615
0.4798403021543703
0.4776480049520615
0.029369979388147935
0.28093563982819175
0.28893740787040834
-0.34895303640487035
0.9309638679154002
-0.46554039012106085
-0.44400670174863094
0.8554417100078249
-0.3279414407866035
0.39014535577353865
0.08271329681600148
-0.778243654669004
0.2936899048203936
0.6710315359100547
0.2243037187230311
0.14240745701111723
-0.8602632880161792
-0.8832652608179705
0.6502132942069233
-0.2063426895399411
-0.29680648880178173
-0.004410414135511528
0.8878795334171014
0.9382964947177367
0.3850299726089618
-0.022270416890758284
0.2536277529710526
0.6575882271666728
0.19629139838139065
-0.385601362126954
-0.8628043641527092
-0.061117255906528195
0.8330960869444904
-0.7169105107532184
-0.5468272842095773
-0.4668939420023263
0.7110705924160773
-0.7770218334742954
0.7674723207680472
-0.23980216354985923
0.6847078477990144
0.7773841252463494
0.27914700080194826
0.5393564306164633
-0.4871159008068201
-0.08502863794523371
-0.2886727654207995
-0.6296594600821237
0.6799759584051496
-0.1585443620101226
-0.7106317204733703
-0.23605627561406672
-0.663939345879777
-0.544942242055262
0.5740650465168913
0.09590368656888672
0.9277089180955655
0.2414408741872038
0.2688673658434758
-0.302681591932934
-0.6427647381537054
0.4693333473681094
0.16665499627760844
0.9284971255691215
0.4248866803463956
-0.7473588477460381
-0.7126905353193422
0.4389938128050501
-0.29002047738351083
-0.40236382808361737
0.9077628329969101
-0.7187182653640278
-0.884529884025603
-0.5584482705161943
-0.8504649474868875
0.06786094283358435
0.7417863306245257
0.09876426416664053
-0.7949714582735713
-0.3166394323262087
-0.9745324633281891
-0.1340774543432661
0.8185120294778574
-0.926912333626814
-0.27520270591674767
0.9251261664490518
0.9163352636063771
-0.24781185936442135
-0.612370665081321
-0.04329802500763679
-0.0774280502265532
0.17919911185665252
0.23432590773760953
-0.16807712046664702
-0.0029588865235359533
0.9155073465369971
-0.8971175766594549
-0.27503031537933437
0.7610284432489893
-0.46525712326602386
-0.2600593813413368
0.3048181250374565
-0.7681555689405575
0.05661686276907223
0.6057041884070075
0.6928351654994385
-0.9178614417498894
-0.4769046735252454
-0.14081299692602717
-0.8242901907713488
0.39359228118130535
0.780557152720901
-0.3851302213321401
0.31600933782093527
-0.9083638481828148
0.1858825267179165
-0.24125228524911865
-0.3082321956998948
-0.31293042553598527
-0.5906218622359192
-0.4666331446203528
-0.9298048549749236
0.8526431881395331
0.6899205127929635
0.043251758470145285
-0.5979809200563454
0.5424428516487728
-0.8126286414797697
0.15379219008363826
-0.12250227372162145
0.3067661112845294
0.38356128654621935
0.5407621310957262
-0.6687331608434761
0.9475230601107689
-0.9733144885831878
0.3047100587939994
0.33032525679088576
-0.37761396683724036
0.3610490422303726
0.7113656684030565
0.5185610011897737
0.4339194560626186
-0.5601075444505811
-0.6153529549482024
0.44868383986235194
0.8903056447501495
0.05280453592581294
0.898274977826185
-0.8885178009765422
0.5752211000978473
0.6393691878224906
0.26926630709186383
-0.9219384187652503
-0.6621910224634061
0.1562974928831965
-0.3666867784767098
-0.4418901663065955
-0.804086723188728
0.415871571394995
-0.8749124018310445
0.6350134010724264
0.8621914006215624
0.06388957918077641
-0.8798241721181723
-0.32543757019432257
-0.7004729647930058
0.08695291988235486
0.25027257674279746
0.8745756567507604
0.7451750583259802
0.09505887326207024
0.5991323669892809
0.49824230778295037
0.08574111149455486
-0.7423587333442249
0.4275169673817397
-0.003319957525913892
-0.7985230676474826
-0.6659981708419155
0.6346261119679149
-0.3967501204757644
-0.4437060896515749
0.004255155287359833
-0.7188085753430062
0.43685689334611666
-0.14571738556039118
0.2972608330506665
-0.8019557398734907
-0.6216503878256168
-0.6856583001164418
0.7262904665776816
-0.41548854465950147
-0.7547328139956837
-0.5724244970941594
0.7952151627823097
-0.43410439190676947
0.48064148920022476
0.2167572169447032
-0.6189425656452587
-0.6715236676854885
-0.6929916461322321
0.3124704311015887
0.9443060368110233
0.16986839966925243
-0.9787196990681825
0.5311290031097592
-0.9880070577043809
-0.11784966726775462
0.01232611503269077
-0.9443036682834091
0.31702107654793266
0.7421408309317252
0.001963109841953295
-0.23242726702824332
0.5332253691011893
-0.8472495215081001
0.6519445147365238
0.857194792859037
0.6708874910587579
0.4793576279505867
-0.8165326444065409
-0.8057987736538105
0.24542201629592272
-0.6145904342563865
0.39219467931465263
-0.9070209547112797
0.1005040893072716
-0.539161100618619
0.7747357651484063
-0.5981405526637992
0.7712181727789941
-0.4425455164206357
-0.7608745446006059
0.5450264569829184
-0.8278748481037523
-0.07831149636040717
0.10201535664955827
0.5737185018783857
-0.5415209077703951
0.5148362863710387
0.23411851662367536
-0.24988576518074884
-0.6239408379901256
-0.2609215512835971
-0.5141632946950044
0.8670255494544725
-0.39397654466983045
0.09036701010899274
0.6601852955957637
-0.6790858528094085
0.15372676864064283
-0.5437804461399851
-0.45665478425083195
-0.42594065106461043
0.1798761351309689
-0.526346883189237
-0.15440184616630098
-0.3395168587468771
-0.6069070083774638
0.5032377515881424
-0.49633958316305554
-0.0782202469776647
0.33224168343085125
-0.92928303157151
-0.3114390264450366
0.38095348730184303
0.7475259587128165
-0.8822597699786341
-0.7350662792216701
0.38370519822971594
0.6571962245605717
-0.259983720600735
0.8628149592553818
-0.2314316892442298
-0.23881635513571958
-0.00197100157514852
-0.018329640029934615
0.8611929938565431
-0.5160599812603279
0.9912202422517213
-0.1696340465473704
-0.4192883897016238
0.9418765528415671
-0.44132992052274894
0.8729277410732593
-0.3445049666959131
0.4147168622502754
-0.9079786462295352
0.36402707014869634
0.5800887525832092
-0.8974402674688253
0.1509332873304265
0.2932578560176827
0.36942990240477575
0.7083256667945145
-0.563074423774932
0.22959341352290605
0.898450186363064
-0.2771726341820873
-0.6951301562767971
-0.7181859020323981
-0.2624683708265144
-0.20596694548184885
-0.929728287647656
-0.9818669921961567
-0.016333307351303256
-0.9934709686685289
-0.6601265389755138
-0.9431132622808199
0.5391663322592459
0.17037402903328633
-0.9069048125775124
-0.5868744176651618
0.84145818503113
-0.8963233956616171
-0.5750364685388394
-0.6158536952994164
-0.5531056423971604
-0.5034209518120117
-0.4036367645994753
0.6030611087525473
0.5941745758985568
0.33941078625054943
-0.9058498514108387
0.522014281685156
-0.6082673505679826
0.5973038674195135
-0.37902175566877805
0.7767731931852537
0.8848256908016636
0.8913772031344253
0.20527466591555915
0.4653138881713357
0.7624296256964677
-0.5742473886957652
0.2443717958061135
-0.49166128119639896
-0.5072420954633219
0.796239908962043
-0.9263326294861686
-0.6278332651968417
0.24908690763511818
0.8776748368565337
0.2030282468128709
0.5831832253762925
-0.9989910911752341
-0.5430853944541878
-0.9971569629209077
-0.3132701578012465
0.9818832677054525
-0.7232064388349352
0.7136330638311768
-0.141947162530272
-0.3051024536222842
0.9521397250950296
-0.08877658568454525
-0.9371439641211344
0.91475709619552
0.2642455762251783
0.3224619134870546
-0.15462094466471019
-0.9787004050127404
-0.9352636916222936
0.21042985228232294
-0.5298394524607258
-0.8861362221359463
0.4154220011839501
-0.31834569175908295
0.19457639739111374
-0.12394759465638534
-0.638115057228076
0.627045857515774
0.5274826153531438
-0.6363517127685818
-0.0022689081891950303
-0.8192829712562711
0.8129067420174929
-0.8380617934139886
-0.7677864911171759
0.36071060384326054
-0.19316537695573208
-0.4315074528671802
-0.08695201008629345
-0.7448951974423973
-0.040183735132645546
-0.20784301644562747
0.2574795854696277
-0.2930299742140103
0.4018218114295887
-0.3373724800093267
-0.25311575585550744
0.9575993999858068
-0.8640682741067907
0.512920040512505
0.8052602826714207
-0.6976409216636755
0.5039023488526959
-0.17980865464860454
-0.8199340637591562
-0.5358700668128855
-0.194823989942618
0.04416708765850813
0.3038030076913468
0.6197398923633101
-0.45548051304140297
0.023567746785305217
-0.5636557140729871
-0.7848803430186277
0.8636986233928485
0.5038455940380623
-0.06130195706835928
0.7489953535896264
0.6010379290513327
-0.10569563558425223
-0.5637762299200855
0.4729401589586703
-0.8027465634714394
-0.3668871380017009
0.053427244919983234
-0.5681607688377683
-0.7164929236641843
-0.6995246912887421
-0.34415682030940414
0.8879645261075317
0.882096117538761
0.3472801053302932
0.7252551215643618
0.5451596855171791
-0.7563795519148807
-0.5644704521522121
-0.5465693430327188
0.8973973839770129
0.3020572615400833
-0.4478329671387468
0.09595159505237565
0.40885716273702366
-0.2957337666973228
-0.4139629712032013
-0.2633963255039682
-0.5789868728743716
0.32890132948384937
-0.2869258364923941
-0.08362918953488302
0.4892638279282847
0.05151724596890876
0.5721937760500798
-0.07588421019760254
-0.22117934655115132
0.9864462642734403
0.4651339990720729
0.3356911854107587
-0.10429842786002622
-0.14917079051483392
-0.9329190314521232
0.24557261051974402
-0.5072867658780915
-0.5395104206876415
0.9512983963685834
0.1963690195128266
0.019856536147393564
0.9789663150584311
0.7400708024880087
0.6535306136921449
0.5753433187097592
-0.16569568732672152
0.35400710360049426
-0.1867856638401182
0.20201936791354114
-0.0052845874114184335
-0.5904056410319872
-0.7049732672168455
0.9954805308240415
-0.48928778348901547
0.9022536111696213
-0.5825113373820493
-0.9178187930368441
-0.48343193571005527
0.9874755119903587
-0.04993969073969091
-0.9823815520715093
0.881043107345633
0.041509908597058
-0.5860515548089759
-0.18631854439542012
-0.5504553181091797
0.8624348755432595
-0.9029165165283946
0.44500037232613704
-0.20397554549998986
0.25309862105454134
0.6032139694782227
-0.752528626277473
-0.546831493239983
0.14927122025303802
0.7903123378466678
0.8179663239828882
-0.11491903904202294
-0.9586853212094906
-0.4506793762994262
-0.40477789265375363
-0.9745215331273875
0.32304955422439485
0.4692212143652809
-0.1988911218892778
-0.013584456474047112
0.10544434443138312
-0.08057293403912637
-0.11530411051088407
0.9813426809240254
0.879770496573566
-0.3577291950025995
-0.753064424623255
0.30728038452850676
-0.9409953250454646
0.4165526178574514
0.9641460295156147
0.5490716883366669
0.8549602065071331
-0.5397685264478504
0.63191694063703
-0.21821793892456137
0.503233854084057
-0.8589644656574479
0.2695111577416869
0.21812493606204694
-0.7465369283117947
-0.3866234371351283
0.6960788422035311
-0.7814345537720955
-0.1748536148718142
-0.6058978133019857
0.728754076014588
-0.6396883391017932
0.36831192508741556
-0.02550181229352015
-0.3778691399720594
-0.5494248211302231
0.08526702862199369
0.36548165396553894
-0.653537358057229
0.41938037714984927
0.3123382109587377
0.3147204140391438
-0.0800265644190602
0.506957994171307
0.4719490154236917
0.6798806156774629
-0.7422024475272111
-0.39006869879178224
-0.4016864724822331
0.6901724726506431
-0.43391416167285496
-0.16956095293944037
-0.5810883410466547
-0.9578120518864753
0.9410511023010535
0.3009970270601723
-0.8266227153262505
0.4746388900374843
-0.4259825228314615
0.2878350967960928
-0.3338718189323067
0.6708211584648328
-0.2433255967035977
0.5695376343915406
-0.7312405449151134
-0.2273063945439756
-0.3243346201113402
-0.6397424357638244
-0.16711362024169613
-0.5593511078733402
0.7498903353469537
-0.03704514969709998
0.06072152427356496
0.5410195392088422
0.8703466680485991
-0.6940411378286651
0.7802938970477159
-0.9067241615741758
0.6586881300734853
0.04495198546920936
0.624119075711798
-0.25101698276001594
-0.7374343544390461
0.3959519358967531
-0.23731035178038856
0.25202495176476136
0.9536756132566557
0.5091848731365172
-0.8099945000510091
0.731606118453324
-0.8332221698600616
-0.046913217557834966
0.1238789384162691
-0.09032880543810068
-0.9397430792866723
0.484760155343786
-0.8252803493911292
0.5619330551113537
0.863070061451295
0.7054810548201874
0.4831123213808393
0.6928935192502909
0.35871834098353306
0.3961765371503724
0.860004612155122
0.6368507257304151
0.31176684230652635
0.023895984244915295
0.17703641899168643
0.3206758965801376
-0.48836114524064733
0.13831327615629202
-0.3609622275175949
0.601175827403342
0.648175285343292
0.19735033136898475
-0.39804504957864223
0.8275637598879447
0.36781609395367293
0.27370297487131456
0.15399318980768362
0.45842768576057363
-0.030413334200070596
0.9519200036680808
-0.31103988712515207
-0.8135173307405646
-0.29371713997719606
-0.7711548400530875
0.1542723121453151
-0.2702651511202557
0.3395345932298867
0.6722839466058045
-0.26954152083047866
0.11959322969295569
0.17937960627177402
0.1110400063704351
0.5397784510522025
-0.22380930694342183
-0.22023858486049971
-0.8400185739800212
-0.9075323926350485
-0.43914763144746893
-0.5641425320001145
0.963798302084033
-0.020837060935955217
0.602001720947836
0.4342776015931224
-0.9509840839214274
-1.004358947374809
0.6011116994006697
0.3718119821013441
0.9055846933125941
0.04099931585691515
-0.18027818938179954
0.3497509263309141
-0.3682758856089776
0.5629171945858251
0.964968593038354
0.6090412055470276
-0.4863512375095323
-0.0189688289892606
-0.24528153049750046
0.7447670457037497
-0.5169128393415597
0.7485624745020198
-0.0800048086850602
-0.901519865382164
0.7469693219184403
0.29875583701027525
-0.4617253328115504
-0.6885687123752583
0.5301690992960759
-0.6875586921025004
-0.5082368058463023
0.5550310322098693
-0.8922764188795559
0.9061716298043784
-0.9012452345170673
0.5127359307582768
0.9686935354396241
-0.8791246921796549
-0.6352292716442092
0.9673949186447423
-0.6428111992446315
0.3008782189948101
0.8604792723763549
0.002738851138660595
0.34754337551276304
-0.10918639225411896
-0.41113049059541346
0.08205272479671241
-0.31233188744046386
0.47625723984579954
-0.8568101810367992
-0.2999640918916805
-0.10579934013655061
-0.3786471411051303
-0.738330766976572
0.6275324722806941
-0.8655727584910442
-0.9828569876800861
-0.007720388259274769
-0.699603842679136
-0.18862713312106247
-0.5929530192504338
-0.00386298793256318
-0.6834004730744195
-0.05752577178865187
0.07236567885537544
0.628370875213417
-0.14240232615549628
-0.014053240129695466
-0.10325139490921117
-0.21674578375103695
0.7744598158644631
0.4959400883976562
0.5256530008417561
-0.1825878921605483
0.050087152110363915
0.36906896610371637
-0.27920226128328496
-0.9761302103400625
-0.10203285795342268
0.9726739168578837
0.40356254715489837
-0.09325093252155658
0.12242658217305356
-0.7975140989859496
-0.7745165365730777
-0.9293563474077651
-0.8913402721716764
-0.07903888368469726
0.31772642212073265
0.2824293751532417
0.6993218485542648
-0.37309273281605326
0.8578383056226206
0.21890289047330136
-1.01488932273892
-0.8715407932188866
0.678597322822702
0.629711231068954
0.9206812987951241
0.23679997745738135
0.2736409218053291
0.5107257162801658
-0.47098523196630665
-0.01928390594125096
-0.21734673200555982
-0.021586263190924982
-0.5191625269605249
-0.8939159251739102
-0.8983414999238878
-0.6972867421614193
-0.08514867572767597
-0.4552880926489411
0.8381306582883745
-0.5731103457606461
0.6976420330652839
-0.3313082190527376
-0.26398798139333357
-0.3128937117218205
0.4421987818466964
0.5091032978973258
0.08227108550474771
-0.36337254596104224
-0.19992575641382876
-0.8368607130566709
0.5369803975244252
-0.6801923786854799
0.28659633441187793
0.8634730326036705
-0.8625171208445671
-0.3938546267413433
0.44560832012360824
0.8452911879040547
0.8941311953340435
0.07191625349962169
-0.9197768055017067
-0.5731408826744151
0.2265598629732834
0.896085496166875
0.18644367503525355
0.04979870904994084
-0.9325564056963775
-0.5977493797086494
-0.9285609093657414
0.7759135053670474
0.9920705584912857
0.9975804814865972
-0.8322435362326829
-0.45553415931459673
-0.51133669690107
0.8160355332594343
-0.7859246298359116
0.6974224008065318
0.3596262090958195
0.9470237536847737
-0.515976459026087
0.2403616129006501
-0.11219756557453255
-0.5511912479745388
0.8188230535695891
0.5009506262999486
-0.9224879109387435
-0.1644935036151513
-0.9478303899438396
-0.9156638641486592
-0.8207919550395417
0.9614910698031062
0.7294814699674227
0.23472739494818373
-0.5654911943451042
0.343130514789297
0.5086716256156483
-0.9749045256907155
-0.235176841664962
0.5970104438090813
-0.9210531029139978
0.28428426464188084
0.634926112763043
0.7080229626063359
-0.10025931488743321
0.4945545415998591
0.4341383702164549
-0.04229630449360446
0.501581566232096
0.5990280961217718
-0.09949212072209959
0.8539079808457517
-0.985770321304656
-0.01799196979542512
0.3190154835248499
-0.5235806932807074
0.8903779047333367
-0.2609310108940948
0.08266027078078389
0.5702054242431012
0.9253245980624779
0.003599081736150539
-0.954078488390162
0.5151552797851238
-0.6604563141343075
-0.10755753565088483
-0.9542794099133977
0.46825176371288446
-0.7837966998419219
-0.8487195382044105
0.39929072738483695
0.3697597227888581
0.44314215341791696
-0.7339490495454294
0.8837992037353561
0.8618296335971601
0.022118006292522793
-0.41303263469110724
0.0038146692705039167
-0.4454584658254309
0.007246297514270516
-0.745877525104493
-0.8890111113953502
0.2822516556179246
0.3388898965188609
-0.17982442482374614
-0.6444036555596838
-0.9055905270873404
-0.16649957249018596
0.25809335128929295
0.672495820716683
-0.32092130233119187
0.32508084003092974
0.8080294801291317
-0.8914938071029527
0.06160493271644301
-0.3720186278945036
0.727195244682988
0.11538676195554777
0.7476310050734851
0.06855787050126334
0.11110518785735385
-0.5476717413390033
0.7566407365717746
-0.9776309563926313
0.4242890405958883
-0.3787472987434959
-0.038528077669779504
0.1163340287256723
-0.24912557921684245
-0.34970572297746183
0.3692317327775402
0.7884041841818206
-0.3794818066664809
-0.43429856910021214
-0.4246578415006611
0.7952692082030881
-0.8557369117633976
-0.8540893801779582
-0.617580076658808
0.8392302769910914
-0.09907319872595821
0.05560203053828422
-0.10670563601545689
0.3951373390516549
-0.5809555978051555
-0.6936490464038391
0.7890194979096079
-0.7398013902038558
-0.7741719492703295
0.7743872763761358
-0.7654586273522113
0.7965655327346322
0.013648085855193375
-0.49292568993220054
-0.7567180208722918
-0.8432739106263126
0.37758297012029085
-0.6741683812428433
-0.8726371212635858
-0.6768797617504706
0.8030024368393776
-0.3404258051270655
-0.45626551296975243
0.45288103340559904
0.14512156256790482
0.03499027104304412
-0.03177717123790887
0.3680796330481682
-0.6197009597310752
-0.4622746594076958
0.08246018875927111
0.26773791546131614
-0.7311988991423453
0.07883691741420919
-0.5540195580234248
0.6526861214458028
-0.17827433549981359
0.12248087904019737
-0.08377987200741023
0.24772737037008874
-0.17702395885328606
0.522829241457436
0.40703756804906827
0.6383571092133082
-0.2531332135663299
0.5457620788318605
0.15391243310924888
-0.7703664896383613
0.5766654995236181
-0.5469508888441111
-0.9917074066908221
0.942999827917445
0.8015287843115534
0.5747244708638567
-1.0203223112364792
0.8105111395353135
0.6896680602790981
0.7886054344641561
-0.35974268039521357
-0.5108534839708055
0.5244938052902103
-0.4516909499424118
-0.9779988033726824
-0.5116620473284517
0.9551417925989488
-0.016263185689459926
-0.6757305710467159
0.8300871853897162
-0.2546635969561397
0.2716044317728199
-0.5049357017899945
0.8522208144745934
-0.9904059439996766
0.7322637921412195
-0.6659438567806398
0.33047830550445323
-0.21060419126750288
-0.3134693135714863
0.3945730796673017
-0.3399497352875874
0.6171096328456314
-0.7461055060805949
-0.6891474192452055
0.7191034015346915
0.1394869413864258
-0.7884689282488276
0.7159319133691596
0.30859469913880344
-0.6358925581758921
0.9750946878969539
0.4840743641947085
-0.5636974030951504
0.4647758002035451
-0.39350814750080365
0.48085881520857726
-0.7061222419977056
-0.7758751178005641
-0.5678257416148813
0.8532587110310107
-0.7438286827912873
0.7970477702705976
0.6767263706817523
-0.4570051138880302
0.15904921206065836
0.49355751357742905
0.3765557243630524
0.8100214392818027
0.6729351595955454
-0.3727495893242611
-0.3582373766342136
0.1382877181582536
-0.3141674220621515
0.3602315672661967
-0.7575512435149235
0.6793495081963133
-0.666947650692219
-0.09612169365113148
-0.9366040163254877
-0.14138697524499425
0.38233092594845364
-0.9230521690224803
-0.4286861509890019
0.8697675303996293
0.7705966963400035
0.24204416385104327
-0.2436558591723599
-0.4911204271797717
0.5176856202128443
-0.01352767987299848
0.15960646423533484
-0.001613494777149739
-0.3098384802291978
-0.6048971198132962
-0.46762286256565766
-0.011875561669786903
0.9223521272889571
0.08424955704436464
-0.7294022159595079
0.3295616199010761
-0.4976567724145475
-0.48171611961519584
-0.6485490465788917
-0.6131148132175196
0.3702506057038123
0.2453963487775042
0.9081187381229827
0.9824724692054281
-0.43082214575966576
-0.914495710629578
-0.8890994359134385
-0.9251868507244699
0.9540979171353615
-0.45538743926866393
-0.25567207939268155
-0.5620720248907369
0.9551836789700164
0.4215343546916432
-0.8338653144877645
-0.5600264880316
-0.3499739017365231
-0.29337905045089857
0.017436931060556448
0.05808275330304471
0.9095277167414045
-0.2689747733249766
-0.9051695077205847
0.8193955670317487
-0.9560864626357692
-0.3387530502983865
0.4487165232616793
0.040126907262214385
-0.8141298076971157
0.924497082384139
-0.6790739683591202
-0.548246185648523
-0.1556619287055785
-0.22393291934083634
-0.9276116617314589
0.5520681847939645
0.07805529507165751
-0.4218995243308007
-0.6249853712360647
0.8210697878968126
-0.005160263889573741
0.9672730082370442
-0.6010585707381676
-0.9859910701844719
-0.1081044143188545
-0.4849872560587316
-0.7283736730186244
-0.8591637629691199
0.3858062111646353
0.4059287338982226
-0.2702907796069152
0.682515576897799
0.49623589938619367
-0.3225233933776587
-0.4326431136488852
0.6935098968178471
-0.388884751606642
-0.43207269580509067
-0.6691092661228562
-0.6891123307432718
0.891223997231685
-0.6946850721392759
-0.48449724812846684
0.8951147470892651
-0.08005766120184475
-0.10998513617105832
-0.9889138854437326
-0.4603744777052114
-0.6250980892869005
0.7507344109198226
0.7532677109354036
0.49474827019079654
-0.301714426370617
0.8781966542624307
-0.2560079777052327
-0.6866674368700267
0.2827761089533529
-0.7959814813078062
-0.021315860928629995
-0.5710359908547012
0.15614497585888568
-0.6080301348098459
-0.14876106358472582
-0.17219160421249333
-0.9730010613127107
0.8724455585888778
-0.828700587074715
0.6159354335483354
-0.6483856059280398
-0.7563877809163552
0.09304742648075863
0.9165360420486277
0.5702076559132617
-0.5590987600567923
-0.4959433810071252
-0.15444344612002073
0.5332210314471153
-0.04724228746728597
-0.27971227479161437
-0.3174167489135895
0.5516777353477541
-0.6379854983831811
-0.4370232881948653
-0.20100532887561612
-0.5561385280635994
0.8082272060023833
-0.7893972582916744
-0.14293317219691698
0.3886453469552015
-0.14330847755594106
0.291800528493717
-0.5489701873358366
0.9023985420960492
-0.6994870935436662
0.3980251601509066
-0.4493151037452289
-0.6801147034512995
-0.27420548593124056
-0.917096930220082
-0.8181135152842086
-0.6566616183401074
0.28347542766639156
0.20628335771946213
-0.96465767011356
0.564158441804556
-0.8183149644636712
-0.5911832543118807
-1.0375292814964632
0.4020107131707325
0.6065317069578334
-0.5891305926791539
0.8068977914026642
0.38086923611232476
0.921484905174127
0.26484952174458176
0.8779317308113116
0.5498297643188335
0.15979142074833252
-0.8032666242640469
-0.2977920819819521
-0.7039670229874921
0.6604883703593017
-0.7228661211719916
0.13850198318008544
0.30958335740578763
0.8975473201581858
-0.9186121283913818
-0.6288849043966867
-0.21151666321837895
0.3226797559929168
0.0792743278192943
-0.8801975884209582
0.7681294400076475
0.8325958537638781
0.272688158547166
0.5745219764849078
0.5659629368475273
0.21630285237133257
-0.8491555002571227
0.6400160519613151
-0.7166826437802543
0.5027974488966931
0.17931883302569507
-0.14183956030209893
-1.0196653410800134
0.9240249938959878
-0.8849536180941543
0.7301864197517363
0.38914448404052543
0.1117454803438799
0.7151788960142249
-0.6405576355673269
0.7186024354637739
0.15533804554485967
-0.4040296443525067
-0.6972591774546821
-0.15539527079942222
0.2564630559495435
0.055852270577419434
0.7820406642825736
-0.21336433079530182
-0.08875728902890383
0.574323359858704
-0.17524721665584195
0.6464712200470227
-0.8162205205917563
0.5810647204125835
-0.3262847897828463
0.3451983277949515
0.3944784838822494
0.20587297738941385
-0.9413999803251675
-0.7365924884326613
-0.18544083440145445
-0.9964933209961908
0.32291653650367785
0.08302931307733477
-0.9720839046280443
-0.09659436492210692
0.21171998333056816
0.4429593609478151
0.07315731312074562
-0.8143094724389824
-0.48852943368343127
-0.8729248716855009
-0.627984464247076
-0.42490255330687854
0.6066506386678174
1.0284061898408585
0.2690926443674019
0.11751690734260492
0.9348189814091201
0.6558309377374284
-0.05539162539347392
0.9174133351308302
-0.9475984513648696
0.4418450375026412
-1.0385397883742715
-0.7375388718888781
0.7814095503870906
-0.4626415573177859
-0.6627082783830827
-0.18636382906488932
0.32601765068305316
0.10039910625876654
0.10258339093131207
0.827136609898322
0.1603647292227746
-0.6464547477283638
-0.7242237138087761
0.5641182748790605
-0.3024266433212173
-0.9379620301398673
0.8547616902336325
0.07611765680155759
-0.2524060769680832
0.7581021479225074
-0.35131829808966336
-0.06813883855320653
-0.7820294772672236
-0.2894735989538068
0.6307575505351732
-0.2704672530280413
-0.4203465954177589
0.4819429503879529
0.09281503165486928
-0.17810658262262316
0.09654866384703843
-0.8516983062866474
0.6365930413974015
0.8794747975863128
-0.558321936010587
0.9138096467853919
0.21698208838268584
0.10021489669305968
-0.3062824719986271
-0.13719044795298818
0.8571740979455806
0.6172701005033807
0.15984510800629512
-0.061099345254983686
-0.6086090690243499
-0.1482912488519652
0.7292333767159148
0.31388519564340084
-0.036192192337903474
0.8584411103307084
0.6828576373064636
0.6376975931621348
0.15085089348924174
0.1519116669236765
-0.6018946377145122
0.4911923511349105
-0.8831999760966894
0.0814519581654591
0.9575044574759491
-0.7979083623702505
-0.2571204415591969
-0.43880613706304666
0.6808173448090603
0.39265409024458764
0.6604178740802038
-0.8472089463806478
0.32833034569903746
0.27742412147996204
0.17139579677250527
-0.9686546843146091
0.6983769634501563
0.6411583725042902
0.1458540637531637
-0.3114118880470017
0.9647316066278468
-0.28437308536646955
-0.18955031653494844
0.962073918815196
0.8820751365323363
0.4413923386177337
0.030399743210054314
-0.5008336512721662
-0.575558401894229
0.3609286342162857
-0.9388536386693911
-0.918469789922102
0.4318415545243817
-0.30896913086297784
0.1511205855854418
0.040078945474742944
-0.5274071769242489
0.8483299583994496
-0.31367281998625907
-0.23412421437228834
-0.95009392265199
0.48164624682769963
0.09907079401561972
-0.12689509954104433
-0.12268980069798252
-0.1263473331909177
-0.8463526153682862
0.3350784241299027
-0.8102466679434708
0.615137657610545
0.23037751799838677
0.2575875187725222
0.5528855628787713
-0.26427706468643813
0.0671690169157273
-0.5659504904589968
0.6654202120473593
-0.6637119632748306
-0.8634571561466176
-0.7026161291224078
0.5276586097785484
0.519845932637336
0.3232463379340303
0.2733484864001757
0.28396351105477025
-0.221223242039125
0.7969385883846959
-0.5751315212709713
-0.9674325446303084
-0.24197451595388983
0.2642878673303849
-0.608436234127448
-0.45308718088002675
-0.8718173983840563
-0.40765510038939423
-0.01786755615644083
0.6151377357790256
-0.674941765491882
-0.8787574650135278
0.01123912127789333
-0.6127663653780914
0.5638659437956478
-0.5596642262660171
-0.6934730614783138
-0.1565974939073011
0.766195337885745
-0.8867585125934445
-0.45901611430174405
0.9421236204657014
-0.6224398364100319
-0.5711251561892247
0.44185096316293027
0.8734924454617721
-0.35063361303806634
-0.5076525337755986
0.5024344479164261
0.3987182700238269
0.7253013711075021
0.6685226067428811
0.28285247542818487
-0.3416827061256107
-0.7708442701883494
0.08424833618952406
-0.33783095603263064
0.5554755564200466
0.15677932711718431
0.27348103991852496
-0.8015171772680244
0.753624386228063
0.5082251628793795
0.052988531381666454
0.7632540160317597
-0.7757862519716326
-1.0058014961356843
0.2803991808876611
0.20033528025747213
-0.10749988667805489
0.43131567916687663
0.24381818972761374
-0.8717213995253092
0.8411444759445775
-0.868265824609108
-0.46783835021340386
0.4542384773688788
-0.4232096639559931
0.8895864461914974
-0.36407902199124764
-0.6964656888563392
0.8717001103384565
0.6666644996869971
0.8558482287004716
-0.8297105243289377
-0.38375090229718184
-0.5242753791162825
-0.5242850195717156
-0.8765846509907925
0.3616907481954823
0.8999377870088316
-0.07006985832493788
0.40707603311109763
-0.042553982257893634
-0.8954893394266469
0.2873199827990535
-0.6545060762028143
-0.7700457623943917
-0.04950420867878242
-0.7973125969049631
0.9568460311848964
-0.045800855859103234
0.6835199002737441
0.4585339059631236
-0.806339264863768
0.5685107428864024
0.5769840765396328
-0.0474138896700468
-0.13171105105096795
-0.5438013548119253
0.3609234821033968
-0.0020447379803111105
0.026927488799152185
-0.1418390347410643
0.15109900958765493
0.7706885039548705
-0.13514044421890692
-0.8449449409221048
-0.8968886182651405
-0.0848782517070141
-0.9657684941011474
0.12958718703339223
0.5491484443437719
0.8918353789057075
0.33213179554013705
-0.4709531726716509
0.3814786000505812
-0.9462019865482295
0.8935947145950066
0.9679899009192126
0.5758216931359944
0.755340833608679
-0.8266881227863682
-0.5729717591347129
0.408232324955754
0.7865457926501335
-0.3180269675539624
0.13947139641027648
-0.6200095369391455
-0.3463887064007632
-0.18076087984280095
0.11457422800217122
0.910887574391348
0.8262361399258833
0.03186060701555469
0.10307753990694794
0.36484044415651756
0.12237667829526405
0.3423432744947365
-0.12510201477114347
-0.5189524088926345
0.36500629806449797
0.21614801178656345
-0.7825849436485564
0.029504124608733234
0.9695284813969708
0.6355169699841074
-0.5550867371514819
0.27640661236631864
0.5468441937067416
0.40460049463667813
0.8747996657651567
0.14515842549220653
0.6423174956628852
-0.39647557527254595
-0.36284119856526165
-0.6530146018765756
0.4678659119831382
0.12072813883432039
-0.9063259847200459
-0.2809319707855709
-0.8329378062121873
-0.8973340685081509
0.5616557919133864
-0.6786180857764221
-0.3263543193779294
-0.5131922220782614
-0.8084816676800787
-0.03910949969916214
0.8877260510974625
0.23633910887519485
-0.9686873297450491
0.02430034054216176
0.06823456303411869
0.8919677604772883
0.543299523907146
-0.6757094835034809
0.9518638207697685
0.047054450065389726
-0.5093943886213642
-0.17415179829312227
0.8007676234027844
0.18385192868192762
-0.5065136909415037
0.9682203235660672
-0.746526060125487
-0.44270885463499937
0.4193480750830533
0.13810983533658214
-0.06056317115492192
0.006733664840096966
0.0330082528916074
-0.7569574707738228
0.3316475773466095
0.6327355592108199
-0.6987830033872305
-0.42881423889937303
0.7799131361631929
0.17178207759395417
0.8325738920337133
0.23169508058734775
-0.010511695876983087
-0.5300774961107053
0.1317271462213446
-0.9559940879489319
-0.3809849196207359
0.644661085082977
-0.513348613522604
-0.8766666249372207
0.21552227790557058
0.23273140640601128
-0.6876705207201899
-0.9698019736336515
0.9418852671028282
0.8246785699845681
0.6704998996549565
0.07950587282375403
-0.6525344403071903
-0.17778996831652613
0.8709944920747955
-0.9525178455673757
0.3662229746578726
-0.9941233470707039
-0.1528708539446556
-0.7403856606378636
0.09079162724453581
-0.3768620290286025
0.1391140299735114
0.1602226286403327
-0.027602708052064124
0.9681577547638552
0.5534668050620624
-0.6455495651592823
0.43788153551298764
0.16875722300600302
0.1747941458084481
0.12420811483523471
0.7358030966081521
-0.5037257104956675
-0.029039393997464736
0.15561664899112468
0.8615135896959067
0.6988287988881897
0.35755455923381363
0.6669411163498866
-0.6007721663524307
-0.8525232307443704
-0.5817985064437288
-0.9597920401599407
0.7869695561605429
-0.9308883420513956
0.8808428930618284
0.8322073353434515
-0.29250977256555355
0.3946464038927196
0.2609420835559661
0.49645466025459534
-0.9050621291747398
0.7123148110131631
0.5518793695822122
0.7699852571870751
-0.25137286366874106
-0.014084678926509088
-0.4881177203113477
0.17536768384657575
-0.8900919935591705
0.37966939232654884
-0.5281637571644329
0.14435172549707315
0.6000769048838671
0.3940820764545915
0.27366282792858215
0.30532296237428835
0.7676720968645493
-0.10328482241949957
0.9495058408258844
0.9367121069693235
-0.570526128231917
0.22571050303696186
0.5164869194026048
0.970972378327093
0.846244094708305
-0.6339373061409347
-0.8933315514065312
-0.9636991656585748
-1.0176046096724822
-0.6108749299463021
-0.7847067681182838
0.02927775005513769
0.6815211370068566
-0.8366420729929732
0.8927714878395279
0.8359978650210855
0.6917753110866098
-0.7418885268796992
-0.3862055410364683
-0.5135254000559191
0.7780084151199324
-0.678235117545034
-0.34131518088175783
0.5992814163859916
0.5656508586702866
-0.11504185535325254
0.2510511155755045
-0.9173968718273809
0.6604102156829553
0.998036847936452
-0.5053320006526218
0.44840376481813504
-0.752129760666452
0.7928004053969221
-0.86242825369975
-0.8906736874583028
0.5155507222483064
0.16992594096889516
-0.686621017161743
-0.9743019102299394
-0.5322387740650056
0.520008112602301
-0.723935789694693
0.24453354079169817
0.34209687010902384
-0.9152391112815335
0.21124452215395895
0.9539789757464373
-0.09481817381715321
-0.38292219462567045
0.17647281959634628
-0.9297098903287766
0.7709647939616912
-0.37209300506944315
0.4496583065834986
0.3883282341619029
-1.0047092547605658
0.975848769577214
0.004173063896109869
-0.7178469471705425
-0.008702465825827203
0.32694986785243163
0.5069037210405007
-0.2757566310471835
-0.06410143551058632
-0.2075920797451049
0.28574039559647774
0.7924718865316748
-0.649088254541508
0.4992689855668049
-0.5785083878631736
0.04137905188659343
-0.04984662260366338
0.5205005782775233
-0.23964428607704605
0.8430525750785739
0.06362333699181069
0.11935322909887504
-0.10018112522851245
0.6776644284294132
-0.5525543784217963
0.4124899556557019
0.015788740867387668
-0.11743601986235129
0.39858340853516766
0.007066624082464693
0.748070195201773
0.31917325012801806
-0.4244058628334564
-0.6918972292192774
0.5129509246588697
-0.9875060442942749
-0.7343605770260911
-0.11672732483433663
0.621996921227038
-0.7266380201355445
0.583235556093902
0.6430073226981426
0.8059591155630167
-0.622454911520758
-1.0320793186093025
-0.060393142226633986
0.8886292365680111
0.9263061803798909
0.806205192494863
0.6570327734617251
-0.014470604984102606
0.8919269931322523
0.7247958087213695
0.01112596108589881
0.6262694145965058
0.6211035759715219
-0.7068247844622474
-0.6929992549557069
-0.9112218912772508
-0.08484465718618102
0.11061950690470833
0.19607083827123112
0.5327069543992233
-0.886951167652774
-0.8655133463873745
0.9361268393442866
0.8641761242764185
0.07607549151692158
0.7958156632714986
0.6631634767450041
-0.38347770508924156
0.06957544298802153
-0.40972941520583506
-0.47307436859510393
-0.3306593780232565
0.9873432633437235
-0.9570886046411485
-0.18670542364177498
0.6647156072419081
-0.9398675135232654
0.5542925067566657
-0.9539613262700829
0.7376691841492089
-0.41843725668962334
0.7725858484479126
0.352458464511878
-0.8713063013052368
-0.7165428222485076
-0.9342465301338041
-1.0179008115714425
-0.5658232549525725
-0.640012595172769
0.09846451849441742
0.7008512930286255
0.8242719110164788
0.4887560265666334
0.4787941232465952
-0.8353790050725859
-0.07067732081357762
0.799312357075606
-0.09223485675577425
0.3102366290719474
-0.3768219054976202
0.4827687457634926
0.37631705326210224
0.11885765693071879
0.754727106704144
-0.8719646627730349
-0.697505213603671
-0.6418891508900977
-0.4112305705567901
-0.7316058882754342
0.6298934457556884
-0.515510262557231
0.11548990630852908
-0.5562486486480618
0.26861256115721915
0.520938123946901
-0.0870813185357103
0.3687421187765687
0.11896155365686302
0.21824374475584718
0.20990252997932332
-0.27077420380306416
0.6884175833206935
0.8629326846643393
0.5331874631312986
0.3706493247894618
-0.34370774899757217
-0.35911615289772575
0.6944945838824598
-0.373207194191119
0.763643290867056
-0.5318981038795546
-0.9236073254159556
-0.052984614062482005
-0.20226012678389035
0.44907092266669196
0.23205894381484612
0.7500420985570955
0.95461418501292
-0.3827015132675361
-0.6675227218722185
-0.435459602786941
0.9236097462531861
0.8419508524193028
0.16971640255829676
-0.23624054886661125
0.6825832588032238
0.023219780139801683
-0.7641182617263301
0.4185552562168894
0.06769110138459773
-0.6697694873056511
-0.69142913602437
0.016003603323088502
-0.26379475982349915
-0.47550045225418275
-0.38249402844218294
-0.9686431432991358
-0.4399201771151414
0.14841149448467433
-0.9094563537378313
-0.8315046401288029
0.71548192852658
0.45716864413735764
0.7462133493178082
0.8179762900419969
-0.9391639707098343
-0.3826280668054989
0.7981702483244045
0.2939134781440081
-0.1783093530150035
0.8760281685073238
-0.029526066462749377
-0.5374294532473782
-0.0252216109634528
-0.7261760204221003
-0.08886456984252299
-0.6872346267282469
-0.6411810495563162
-0.26464921132629704
-0.23059535040894977
-0.6513305771937963
0.0112743973963046
0.32790259907094693
-0.5164218976219006
0.5148082939499973
-0.06408461637704414
-0.07396067960542019
0.5781518477782517
-0.8303796824410162
0.18916667053817202
0.5801502137275398
-0.9908860000806523
0.29451573930777936
0.9401826139090353
0.44264625924889833
0.8656291781509098
-0.9271572795375298
-0.986003055536625
-0.6805904648159611
-0.4276305735503737
-0.027563881989391303
0.25599299101392164
-0.44972717057389183
-0.25335945463433496
0.3293665990211471
-0.8934899854165566
0.31444257145900606
0.7451969770765601
0.6762717573034734
0.7176743172297568
-0.7931735411133102
-0.3942871326547211
0.9389847445717607
0.01977296105308734
-0.5904464497129667
-0.9645146655430806
0.138526898459662
-0.6361016546254744
-0.3508013174711593
0.9849176755122824
-0.873667288441983
-0.5013318713697882
-0.13786041920909248
0.3359116194568732
-0.4690505742697215
-0.08371033503147852
-0.6589668640814487
0.3076901350020997
-0.7978897363803844
-0.01220773081585013
0.960011773136559
-0.7701822322647559
-0.9299588127882015
-0.40223491768202196
0.26214535023983193
-0.39627878716747433
0.702955906266068
-0.40442221308555304
-0.03383902121231241
0.5164282106329423
-0.4622785419805294
-0.3055334985877012
0.7143607818013076
-0.17413043573396453
0.24582707509963575
-0.7314372325169717
0.013738902920492542
0.8776802343769075
-0.5069379401256076
-0.08954045162048349
0.5083234035982728
-0.05830918839813157
0.07881415025407443
0.4771939270721944
0.9720891338831907
-0.9619938109708839
0.24777761201206971
-0.93370629666377
-0.0744352171952451
0.394970960858259
-0.24008873719917018
0.14891900546780007
0.8937064661266002
-0.6713034273249779
-0.5278964198279047
-0.9172569358478672
0.17793444184591398
0.10409142191844059
-0.11819277238657395
0.07865156684886111
0.08966160927615073
-0.00857646810994935
0.442837440561551
-0.22604274249655168
-0.28872264573363876
0.5749857466488827
-0.6690005334467033
0.6273689999516874
0.37237965487518526
0.1808464233070442
0.7631716718843203
0.49076188491106215
-0.7893867558805199
-0.6727410249897108
-0.006077608238570571
0.921067703458027
0.6379481742460351
-0.05739275565384035
0.6808911497088865
-0.9184835632194817
0.5982841417096098
-0.771829828962469
-0.6185230311882665
0.3457157540946081
0.2487252046709896
0.18397982130826243
-0.2545206575320832
-0.779765690680665
-0.1696063858017622
0.8706862662801094
0.08446651883894188
0.549262997840635
0.3212131880377917
-0.12035146307957262
0.9384807605353399
-0.4528884287464646
-0.15075755342403105
-0.381604270165651
-0.46612903000359845
-0.24100267717514212
-0.44099246525053143
0.50152649336161
0.03913350016426481
0.6995788085636729
0.48050762391044916
-0.5038719819499939
0.0034478033659567356
-0.3635148580766622
-0.47744420283078925
-8.709708982500858E-4
0.38021231099486075
0.7048012735990243
0.62474981626754
0.5077358410522721
-0.6962466748238539
-0.5456250880613337
-0.8178735443737906
-0.7491049448899095
-0.28312638391152345
-0.2697063979689242
0.5202461841303255
0.5261292364361402
-0.9146655571894647
0.8082427712147832
0.5333577708945367
0.30858160043818444
0.32014427758884695
-0.2686820379534373
0.4466928405352057
-0.5914074912707072
0.23861768689504698
0.7140381704115747
0.03591495232643925
0.4043206081498811
0.15918110455937304
0.981513094612538
0.6554122119384507
-0.5491767605031811
-0.6935301525359971
-0.8346315776728183
0.8956184878665545
0.028702926152703357
-0.8062310193235799
0.01332972374895684
-0.1273178073623019
0.8282963127578047
0.37743393314057344
0.22524548729646743
-0.2759761434336059
-0.0099971948158813
-0.4433314365103904
-0.06158929961622451
0.1566962354912814
-0.8685904748854545
-0.6504594133863448
-0.5287246269059288
-0.3137674266661466
0.8513650096556148
0.8198812558980186
0.7074765551745537
0.47791317439879283
0.6502880019516274
0.1397860760113288
0.023380002810947157
0.7129770764551286
0.6018645555281951
0.02103942633266102
-0.7275038162959876
-0.20230949695474623
-0.45648600251677646
0.5594448510540743
-0.9624120111195258
-0.1928705943296699
0.9767778502366234
0.6616514234996631
0.2009477617900138
-0.9536157341146726
-0.4798750393422437
0.5845326504103423
-0.3776987360757359
-0.959044190005722
-0.738861818357156
-0.6455473195647039
-0.3142099234947398
-0.37688923031112004
-0.8806385840143208
-0.2873731917069436
-0.6280498171405733
-0.6768308550918459
-0.9847213054206125
-0.6859158239638107
0.5525018309458465
-0.9424738029000284
0.36141316850290695
-0.9800042701925891
-0.6946270651286155
0.4804777850265294
-0.44202859195908495
0.4248294673078853
0.16836231176303113
0.3401287429438345
0.6617466745972357
-0.2292621464450762
-0.5764844215143953
0.7620433262388172
0.6652881814397572
0.04146998382229247
-0.1413488053890832
0.4205373307806163
0.935992653835725
-0.9364521553541266
-0.32197894149903994
-0.7357630482252674
-0.8161130922017856
-0.797261355801406
0.7373908345193643
-0.3682888540379647
0.7681915765571115
-0.5476884513675792
-0.40023408300927305
-0.5414324424703834
-0.7526263753756958
-0.474089475336312
-0.4301963219006258
0.4365847914187524
0.4484004815778446
-0.0044459357301947
0.3448095967179398
0.2707380899959599
-0.3435362102113996
0.3996704951049906
0.5807696693166304
0.12383607631717514
-0.08015861746222967
0.6912258681777459
-0.5745992557026944
-0.11203356518337014
-0.9608571470413884
0.7079373108383351
-0.2353225670250896
-0.9171677423531273
-0.711758323729404
0.6184207575186
0.8384447708658364
-0.23458690113069283
-0.47546022292937656
-0.22545750340070672
0.6840020856705133
0.11967128991761167
0.07168304846535727
-0.9995722473340614
-0.062102950539165015
-0.9930327246861373
0.43262413376306114
0.7408561734904974
-0.6730068234574751
-0.5255550180776256
0.7564965705445248
0.3262760613334637
0.7009942261728541
-0.40052217366853904
-0.2409770644516352
0.035547382611943915
-0.10216036343974086
0.10406812806835085
0.8403621888333664
-0.2961946604101434
-0.2461312415464705
-0.37964643974144013
-0.07214803764679331
-0.8568720878610795
0.16385357735825754
0.6641508306851928
-0.04897759952460773
0.7457008892434673
-0.1997835861548336
-0.03271556761485631
0.5694659878279624
-0.6014592343141751
-0.6151280196537
0.040356111475758474
-0.7509933229562437
-0.9505317491013789
-0.16461015502925833
0.7101164563963519
-0.09343381241477097
-1.0026680369289431
0.20474872096512878
-0.3656518541449627
0.6415423792319839
0.6102870458467711
-0.19947590428025033
-0.3786497948903408
0.42050645783693524
-0.1941903551526202
0.6327485370512054
0.36950572104577534
0.05637027367324853
-0.7760065933362034
-0.030538003485496852
-0.132604634115146
-0.70903019996823
0.37533591730555343
0.5366043830144005
-0.4134741097994874
-0.7180874822240616
-0.8590070486514831
-0.1366914322758815
0.6392455077004269
0.4949691332699313
-0.32795789585907154
-0.19381097499502867
-0.20814322001512725
-0.36272391626940664
0.20968624340467826
-0.10641511035470967
0.5749343923633131
-0.05642680208365076
0.7999787958026209
-0.6282358994510832
-0.5300670574619447
-0.9620815750808115
0.652321500410526
-0.47389051810476307
0.6696604760191556
-0.5726108314320806
0.4089930989165647
-0.4040980711138375
0.8216627608371757
0.4925583143877121
-0.41387941430107195
0.19411334630780122
-0.31402565639471225
-0.030037880214617146
-0.07088214132307527
-0.055606960583666994
-0.22146118898107614
0.9274030583829737
-0.27756986212795076
-0.22471886147663253
-0.31367988406010394
-0.7179401476730239
-0.5357435344414349
-0.5038585587721589
0.05398214718871285
-0.8142536507233823
-0.8598097534774611
-0.18514397950690445
-0.2509129615693417
0.7676640495187161
-0.673063276321109
-0.5894410798061714
-0.39747358919307624
-0.9910364875058362
-0.3813085825255538
-0.6760555841315643
0.3128652310874273
-0.0070629822910207914
-0.9090796094608735
-0.45590542889069086
0.2565463811630984
-0.9450196179420862
-0.5689438284232641
-0.6668144649239552
-0.5532852345828994
0.9387973633483226
0.32366175095987504
-0.30305929496204304
-0.06991871141222872
0.6438634866357328
-0.8518768526740037
-0.9280529755676232
0.4951973864321321
-0.9848350526043749
-0.39367291949328215
0.4678719041058725
-0.8584945916052278
0.3096286615114275
-0.8019994847536357
0.8899712996194846
-0.9882276905937578
0.04782085931186608
-0.8758208517096533
-0.7509303510766
0.22050672900573712
0.830463636360587
0.8977815534368727
-0.2078934484153093
-0.09431024134678649
-0.6487354551516017
0.4758886276267347
-0.6597035931306213
-0.023322507129675492
0.8122832856504233
0.6208473259118433
-0.20445261674329002
-0.4367183494506239
-0.9160155179136993
-0.056860691494569356
0.7471835990690142
-0.7787572682471717
-0.3968205493621442
-0.16590140290607971
-0.05998546672057935
0.6479366843667516
0.8476518837635547
-0.14089777253631489
-0.39749733140724486
0.8746848413153703
0.40642067748776933
-0.4153373067347236
0.9582635076313263
-0.3633880226034699
0.907453155632932
-0.6764880614987889
-0.22512682618717772
-0.9428143774246057
-0.45744303675580994
-0.6783419341748773
0.770474626892943
-0.38312050624572996
-0.11920797762590828
-0.11154782784676626
0.6023413461782454
-0.102828271185634
-0.2606632476757028
-0.3773891197028323
0.7519796903740589
-0.4511375402771909
-0.6117553108986692
0.5613208147380468
-0.5833020007746016
-0.44088088344507614
0.24277787558740446
-0.5314280474158852
-0.45737296411359807
-0.7050143938665814
0.319320419218459
0.574090164286808
-0.4360186339516947
0.9372509771257934
0.7728311975342994
0.9730036694137671
-0.11352082317626544
0.8582190101092029
0.42321423316016477
-0.660173069309985
-0.17122178180089698
-0.12751773988996695
-0.9850623097860984
0.9287618079362152
-0.041413271754995165
0.020684201914186386
0.761453676882033
-0.7639755895729363
0.9146793975244426
-0.7816175284071597
-0.20378004936500005
-0.648309636600153
-0.2616102621886862
-0.19382787817574695
-0.24843457889576326
-0.6847847103295817
-0.2974603188248781
0.31862598349111626
0.5052147004443258
-0.9572120508958953
0.8699293402271455
0.9235975594046119
-0.7423339343037022
0.7374033229475562
0.19645228587829763
-0.25181889433736804
0.009714547700812015
-0.3275726350655257
-0.4643700313567465
-0.22968743501111955
0.6206410764704842
-0.9284527715776566
0.7391699492930386
-0.5407275841798452
0.5045533721770611
-0.7106815912193707
0.004307180162915825
0.11935048157725377
0.0902827695457217
-0.7700687594715773
-0.6222075216634227
-0.6063417655125108
0.7230150228808656
-0.35853055492888847
-0.9580898763726807
-0.25127265945802796
0.22280855607547304
-0.9422495929506988
0.04069141305924989
-0.4364758519514282
0.7522704111543094
-0.6598680539018187
0.09144588070130155
-0.33843172045741937
0.14825782994143186
0.5499917156712997
0.47911083246458913
-0.20566655432594297
0.0243641225009833
0.23989005431476182
0.21952278841704584
-0.2256698683442891
-0.016179354719979475
-0.36680896112034195
-0.618518344875453
-0.8702670666684393
-0.21679467943250247
0.19762529180837224
0.049098064003237914
-0.15154707672277107
-0.5618586407212134
0.3114558646816794
0.8628380296603188
-0.08949289626279085
0.1771003692081657
0.1039394526570167
0.3080419147645769
0.48171284916176793
0.7300286164116653
-0.5816185314649441
0.5978442316718237
-0.1770229416889932
0.9789168078036328
-0.01751922454366722
0.3995268639934402
0.07407359785314648
-0.9946843341382684
0.5373671872198079
0.8292985378827143
-0.4778459074038368
0.42286998870280157
0.6792296622538737
-0.2761608144424504
-0.5237434362413314
-0.5107364742810692
0.5344488809883975
-0.3039468006857486
0.6370680006944206
0.5608474621100683
0.9437021621745931
-0.10861856402690132
-0.800299318102374
-0.8959847316002162
-0.023016110300615164
0.6622044568400456
0.3050022322430263
0.4737908697454034
-0.49694614801124337
-0.2360609971081653
-0.02587987628786597
-0.6435072582425738
0.19955283188111395
-0.9212606307701452
0.25932085282826267
0.7005522394084662
0.9347800484090185
0.3517113907200742
0.45816435506735703
0.7739169648505503
-0.9174341537219819
0.15603987563467908
-0.29085285503886565
-0.5368854191846618
0.0326890031618507
0.7219796056782386
0.14337025407901613
-0.9927788322040967
-0.643088013995077
0.6640945720479297
0.7444688924075454
0.6860119424701616
0.16197344383556952
0.5803549434524269
-0.23995525029970483
-0.34220617017076316
0.5634636352761059
-0.3943538849179078
0.7566471014436839
-0.3309632662089963
-0.3262222950630871
6.50656291340078E-4
0.736343302144674
-0.9232899325004245
-0.6232022012800579
0.9520076755273723
-0.5306057658049318
-0.7626400701914426
0.5244427685074999
0.711031302334166
0.6619724416780896
-0.8157653400762411
0.5511848747051291
-0.8481537859679661
0.2873432739888492
-0.49709634395272334
0.49882757555768154
0.7252731015645832
-0.44911542905640345
0.40479384395805124
0.01692165830367326
0.9563862049264648
0.20037090859935378
0.6811573306062573
0.027794549950196888
-0.5396073852026899
0.7239791480787611
0.08505264115634989
-0.4321275324019025
-0.2920279025300267
-0.7284343545030977
-0.6347767330474299
-0.09776466377109322
0.14863161732434582
-0.01540977815266446
-0.956296601244453
-0.5141360628186046
0.2911665581787123
0.6909790223393405
0.5333425285168383
-0.05200980235486712
-0.17539056078441592
0.38033579182018845
-0.8618958084854502
-0.15494314707332052
0.21736083109000764
-0.313854909185767
0.888210830235683
0.14694909809643444
0.6494057701661187
0.5242339903410991
-0.9571436863507854
-0.5265517882009717
-0.11394397062029046
-0.8205972062676596
0.7514756985474823
-0.9549310084218997
-0.18762139648269563
-0.5738577332678453
0.38647517220172733
0.5458278442340077
0.3945875291708308
-0.7552883630664127
0.8409448311586144
-0.17870238139642586
0.6023225562973631
0.3516977172323074
0.27183836554558033
0.6451558197641915
-0.9702295362844567
-0.45743772213785056
0.4706030829030651
0.34227189165702576
-0.5701463472666745
-0.11063732148076477
-0.4564865083570691
-0.5447563072349959
-0.07577275684255495
0.781652677368228
0.49117718365260776
0.041864674777899555
-0.28867740509470646
-0.21826468601377166
-0.29112146123745525
0.8667919632181986
0.9494485398883394
-0.6923866994759106
0.40961085413722975
-0.7186687279558931
0.895769850057893
0.46140710614897196
0.7684784587102014
0.3903450327711836
-0.8920641307153219
-0.41531131460562315
-0.24851904426356472
0.7951991546781377
0.27701025775740074
0.9890920296413082
-0.041645607037687236
-0.02308408263535244
0.7488238851729736
0.261248085831602
0.6846759250085896
0.19658284585372793
0.9815670744841395
-0.5647204872393222
0.7588419434155721
-0.8735059726363124
-0.11308511507820415
-0.8072220515115573
0.5757093066979575
-0.1490431893859138
0.9121454775413824
-0.6325860242568707
-0.8292169805018038
-0.7107857585645729
-0.11021026399039037
0.10168177746558434
0.47916374762138253
0.2020103549487771
0.6185806471331603
-0.8174730312157444
-0.7776755860630018
-0.8249116536696
0.48083293161907303
-0.6844825818931063
-0.688479221214257
-0.1496616201592692
0.256867978912153
-0.6877508632269019
0.20031256407932693
-0.4385324939330286
0.9538748906757649
0.4308392297529085
0.8626616013382891
-0.5407648751140048
0.5798909347885279
-0.9930843606710614
0.46813785175162403
-0.12987950526152264
0.18490649986213903
0.14318283806470794
0.24352535205565806
0.005342705742059762
-0.9864002661131407
0.6029850490304264
-0.8205547893326625
-0.07389304628521554
-0.8270819031901018
0.025383678487354545
-0.2673272543538758
0.8898162705756302
0.5824148252415476
-0.2399887083510518
-0.3441505685271516
0.4836759400231565
-0.007982500757928486
0.7188865464831271
0.015405450826330302
-0.017303284401235592
0.0788923810937587
-0.8705888259837932
-0.7540963872744761
0.916678775413567
-0.12054130910293905
0.24408991707364597
-0.3817705838069158
0.06402780507542748
0.25222676958534107
0.6103059260356597
-0.01063356248890504
0.5482739228588944
-0.7603881191674704
-0.1609784234445539
-0.6087505689962897
0.3605521380362912
-0.9775224867180544
0.4563420187901238
-0.07845604946580173
0.8364031758856841
-0.9037980108314202
-0.07353217783310599
-0.093433794826707
0.8164716529717787
-0.3097041812149416
-0.2743082745642564
0.548416949397328
0.23214393180914078
0.11896815985734888
0.8979413585786299
-0.22423981213844602
-0.8363026935755759
0.4527901526309703
-0.6482748748552196
-0.7286198935243999
-0.06684411546791139
-0.2419604741557598
0.21541606874223881
-0.28305880922963744
0.8671963236033949
-0.2003252625220406
-0.9256748803066409
-0.794894687971523
0.9728665737530227
0.25390260640350915
-0.6605791197877378
-0.8441220378298776
-0.7142773689199335
-0.8895914507520741
0.540932723576345
0.08766398605007092
0.1002364596899402
-0.7292117860835694
-0.963489776997571
-0.7289630444117569
-0.8533792686971983
0.23559212420550876
-0.9523831708883683
0.0387851018557739
0.03177824052100136
-0.9760617981579268
-0.07521773990838933
0.6576640638634031
-0.3715422084031957
0.4369392861756416
-0.8601046271076057
0.6113165977000898
0.32049589701921744
0.5889594548245145
-0.588143225586231
-0.050183197642686014
-0.7737447507224537
-0.8355914649493832
-0.6380743143683375
-0.07255966811087017
-0.48865367061686643
0.143204735247758
0.8877555480872104
0.8227000382070749
-0.6036754095833896
0.1752228129721099
0.5041844336538006
-0.6232223406722011
-0.4125471232791249
0.6836533993708918
-0.5306956832375646
0.7439846362145827
0.46099738511072236
0.5551394160423789
-0.31277633583755926
-0.36867311862300084
1.0091166756942813
-0.30931625713658656
-0.5327657940290549
0.07132280085045717
-0.12705648124642496
-0.7765231789366263
-0.4023855222386405
0.5271801019831446
-0.397041160925229
0.46437823640682674
0.23020473343339337
-0.5418893701619132
-0.9736367271437433
-0.7089790470986335
0.3956411364911713
-0.19297507791804877
-0.9696477092895799
0.8070607211693825
0.7595718355440871
-0.7358756378515501
-0.41818434167197127
-0.3045503293053255
-0.09890037556205952
-0.6201721233407946
-0.9616522687619921
0.1785930251202457
-0.8368167571523741
0.35450895745593536
0.991695174690097
-0.030492966944521444
-0.5183303691665565
0.08701478569809451
-0.008382077091687831
-0.4696050469047337
-0.20143188639063075
0.36034929735106935
0.8882769189133377
0.23758079364319087
-0.13094816658414102
0.3814163528062447
-0.5224209483514843
0.2589691464231392
-0.46605728759264176
0.445998953047945
-0.8930456925077306
-0.6214169839265872
-0.7775233223696858
0.5738826330756817
-0.30601005001480613
-0.7450781584254328
0.7172709056510413
0.9563285003347354
-0.2315683124687085
0.3221257608729159
0.7125326641587628
-0.7611705370172046
0.9150284677912535
-0.44761086174914566
-0.5951981666958306
0.3442373273278467
-0.5076234875293228
0.5822521024991527
0.9725644199957857
0.40232700267539706
0.6403345546128902
0.6363566173132728
-0.45559417132774216
-0.8432340611593616
-0.7598257045762568
0.02089349715055201
-0.05198164392070904
-0.4713017100246869
0.9098828285113272
-0.9567603424418851
0.5300963169703606
-0.3455823537291324
0.3930787600671894
0.8598817523166091
0.025207953050523094
-0.8678712068882597
-0.10849463174294964
-0.13661266028883148
-0.21492249306477723
0.31264563807802387
-0.03879587030932296
0.7612549817747941
0.2043778692614934
-0.4615160076364854
-0.5184054303955241
-0.9636698115794621
0.8340619927072345
0.8591814712443716
0.4769914746636504
-0.782861660786045
0.28005003096546355
0.7265143830698166
0.5150342972080166
0.40546704231484865
-0.2783654724705301
-0.047490582053294296
0.34317969398283416
-0.6545575576429421
-0.2432424135784683
-0.5287418155652054
-0.5065815409863218
-0.21712436269769553
0.9080275956562649
0.05523050763787937
-0.62232903476337
-0.3237218266635626
-0.7306677634276475
0.7745790570745995
-0.17059365673947632
-0.7008142241158999
0.6257122401745965
0.6945947205078189
-0.050470011962926185
-0.7538325824972067
0.37129836606275807
0.8862299980884758
0.6572050499251829
-0.5885240109028634
-0.10315250897504612
-0.14099673392339593
-0.12920147637839233
0.10893907181530361
0.6743168013945798
-0.015999864152541267
-0.9845730219505014
0.6694404749101284
0.36379920058490667
-0.6746397756870182
0.38754537403641537
0.9630858326186639
0.851554711112681
0.6357697884007883
-0.5836568088788943
-0.36816839504520515
-0.3914144698000145
-0.7813230873394419
0.10765768074016949
-0.9006256775414044
-0.4750775218053126
-0.8644014907548556
-0.3324032005081621
-0.026395055554402736
0.36412054666338456
-0.17367186329730072
-0.5650682539758394
-0.3806785572066507
-0.1405658903956292
0.849777689535714
0.06404548158453849
0.4325556384773696
-0.14144247594332665
-0.3588221620391027
-0.5418078178229673
-0.030255814682259234
0.627121846647538
0.04875700110713174
-0.3147029304130745
-0.6149129902558783
-0.3747236904811032
0.624772966449993
0.737698029600576
-0.16617488344150946
0.5635375528965103
-0.38444290318902535
-0.047772358897735324
0.7351950215300613
0.03564744926430214
0.08730651448001789
0.7381868676936706
-0.8568489285486935
-0.1921096114481684
0.435216365258601
0.06095566662450094
-0.07141459689485041
0.1227734992608867
-0.254128589552826
0.6545375245181969
-0.3660508178862221
0.38849931323341164
-0.513798012191195
-0.18421706495503565
-0.04163118030987169
0.1664052664018748
0.14240063681942686
-0.47701788592852673
-0.45132850035077754
0.37771913761130094
0.36358067310951636
-0.9408146749908715
0.7701657048566836
-0.5957435339962156
0.17147673449090864
0.7930482154718934
-0.18663273327961524
0.7281767906656992
0.9167565432463214
0.3588965661245173
-0.4853087703185132
-0.1638126464360969
0.33279332808021433
0.44465861621145797
0.35473648145739634
0.3515012301565386
0.653292511316568
-0.7272626621110454
-0.7474850647270471
0.5962554084433022
-0.8082613916540599
-0.47676501307881647
0.06175602266166418
-0.32986975677631114
-0.6521978514493239
-0.25579888085423347
-0.665660162189127
0.6930380972880941
0.2812892197248417
0.14989747075401627
-0.22337777934110484
0.966379212612346
-0.9255305302002483
-0.013443446653888073
-0.013672967700266603
-0.564476185546587
-0.08752107259106277
-0.59523920086358
0.9088249367412998
0.8220842598915443
-0.7315030185926275
-0.616966292874236
0.34551123951600893
-0.8971580507455746
0.1732162157273306
-0.7848796527771668
0.2081873490310208
-0.08024434513027406
0.5213679512841384
0.6608557417745562
0.9177424604547326
0.6729362078733931
0.6298606383519469
-0.6760521201331113
0.09504851938809857
0.8500927724548925
0.008008572654432253
0.9573338475821249
-0.32529151559919967
-0.004176280891957803
0.09361693338078418
1.0018085072191028
0.33324452540861893
-0.19007908043479257
0.65391409911799
-0.5602593862004827
0.25733143564945066
-0.09831146865429244
0.6694986398130853
0.7860570408652482
0.9879378127492155
-0.4247861547634887
0.2938787162549209
-0.7824269662069795
0.12189250355443974
-0.8661056409626453
0.6457470788431463
-0.5239395519753187
-0.1414237580090732
-0.45736010148711875
-0.29767694169216685
0.8837858353916859
0.3148777774620585
0.1860863629569405
-0.3501646982056108
0.7997463109331522
-0.6644257850745361
0.43555439718068983
0.9197941102987923
0.2894372123875999
0.1823434827819559
0.3667044328954803
-0.6899030061298285
-0.4039997388629182
0.7850737522582734
0.6973916923867135
-0.026424648498805013
0.8824798723152196
0.5554828065938113
0.5879902349097239
-0.27468709757005716
0.887661912113915
0.022837261940626623
-0.631466841243714
-0.17843618329326155
-0.073303223480788
0.6394483175772245
-0.4027457819992734
0.41351533054313483
0.9496537444395953
-0.39574074142023746
0.9230807749209925
-0.9617494601399202
0.4079476592780505
-0.8989322910154935
-0.7466029792129947
0.8695048922263581
0.7946935479761982
0.2913813979074458
0.6061488107570516
-0.8167572159302496
0.8107381500539914
-0.7588206719354359
-0.6355873940386512
0.4380718863783434
0.03402784451648998
0.09886532047305517
0.3751568046843906
-0.9836121927945709
1.0139303694036195
-0.21326899068282776
0.44452739982532696
-0.795280392941406
0.27480357370040087
0.7649243047022051
0.5687209152926166
-0.42638027435633125
0.36911907093871904
0.23406205943451835
0.3815808167864839
-0.8437853429170946
-0.5159394332685475
0.667433045725353
-0.8476086766949267
-0.5936306610115141
0.6254166253957189
-0.4388857146952551
0.1689050148676147
0.43257457100452684
-0.5256009586057934
-0.7831416924441931
0.37179046295100815
-0.6840270672002561
-0.8966654463650395
0.0039035196835779254
-0.24839127738114497
0.2275549680876733
0.2780235992446142
0.7696176247954353
-0.37739191093586766
-0.010681003947379515
-0.680323707597908
-0.5919029332283481
-0.26493026987183027
0.4932006282392206
-0.48070453155340254
-0.029797856215655574
1.0114641400906679
-0.5113361108767667
-0.2592525693096009
-0.632652384652357
-0.23560805676760632
-0.6798335335746214
0.6468850519327622
-0.42893195739747936
0.0041540405544435955
-0.789528918834404
-0.6222835255695603
-0.4268932180433658
-0.21219449229438475
0.9416895704384483
-0.22454328746914376
-0.16745207653405425
0.8036752068908298
-0.11892277290491816
0.9279218455961062
0.3012441099564656
-0.08189960414109343
-0.11480749769381077
-0.008830994627411524
-0.4280073444808377
0.7597890732508589
0.9019068414397756
-0.4554230952692881
0.5629977125868729
0.584692166048847
-0.3072656727639959
-0.8817067709916796
0.17289606569665045
-0.4899743300516717
0.45294878190109056
-0.5151837198923469
0.9760757247447265
-0.85602317250412
0.4620884884447036
-0.29032732838582187
0.86639541570704
-0.13606797792983666
0.11494847374879656
-0.9131808094676549
0.027517406386588922
0.359689735323328
0.8013325389506537
-0.12301894136063996
-0.9187662323596792
0.9565785503585739
0.3098469661900823
-0.5222927440362066
-0.6516932425339318
-0.8595709163859467
-0.4590299002416998
0.7104387987330671
0.31696207852718666
-0.3268456815357888
-0.30413776843702917
0.38865407070838015
-0.19151023208957452
0.15827987201261506
-0.8602683018190501
-0.10717083251878107
-0.1414799399242758
0.06415411299266807
-0.4670068400380402
-0.26184340415449986
-0.7617437428448841
0.3148305704894721
0.0375445490945682
0.10415288075851979
0.7370625192152342
-0.15139072132578144
-0.46212060679290934
-0.6567275122784795
0.6765839032011728
0.862324523416318
0.3354516792646334
-0.5701069522741016
-0.36533863999377947
0.43097251472326936
0.726221823676573
0.10315225195309918
0.6520898174932219
0.6482433170979883
-0.7132931696742884
0.6334066655689876
-0.17113208850638803
0.43552142782569025
0.9270495019882137
0.1018181985364813
-0.7735944043260276
0.27717374193126304
-0.3440537394213344
-0.15536010734387573
0.19098173210441394
0.5310005219596109
-0.2628688899282759
0.28169007646627775
0.8436404235881758
-0.8879141377122298
0.6538009648171468
0.674790113130375
0.5904593750790466
0.7087246901573009
-0.5421256461386523
-0.11345458145789394
0.5842782695566152
0.8898630496451893
0.053042191836422184
-0.8946126612662989
0.9543669754333429
0.1886234725382375
-0.3463416121785503
-0.6151629971444572
-0.44894471542042746
0.0076493911051210275
0.833930447785208
-0.05934675017826142
-0.2580590069882209
0.30348989991737335
0.8621833539829141
-0.11027391709064341
-0.9096985772748718
-0.5467142458948233
-0.768162509509612
-0.4339116961475927
0.2705131761648766
-0.1721329050671503
0.22902146407062568
-0.02657395593276475
0.7808527557055774
-0.19075417157420022
0.16885830617118977
0.9255287345580203
-0.49332657798381035
0.08741998845511276
-0.23180723595244931
0.3466524896994062
1.006011166583298
-0.9205457246142411
-0.2885313974394096
-0.050859759398252095
0.6842654966181339
5.110271159870554E-4
0.6135172652223383
1.025747023641511
-0.7122130197360151
-0.6614179784237186
-0.4675298516959995
0.49464431025441596
-0.7138370669994235
-0.7261956104262021
-0.9187666119723611
-0.2616420422767624
-0.9576742779117198
-0.423402896369538
0.20282591846137815
0.08860559564633781
0.7284072150497333
-0.4747127418799657
-0.8250856471834105
0.8745533658730281
0.761149453098445
-0.24295567355196995
-0.391116489576314
-0.8882996396840472
-0.9627930569827183
0.3524351363848463
0.29953863949700993
0.16500779135524016
0.8726139811063914
-0.12884068665536955
-0.3278088248830979
-0.34685471647398575
0.6755976398547225
0.35032201533752794
-0.815060944642173
-0.10517906797131688
-0.4466735368174646
0.4308698467200962
0.8977245196833261
0.16181062579636224
0.25715494928051247
0.1636642320861951
0.6476742781743262
0.7715936714211482
-0.3102370082022165
0.9605138853340808
0.9260297836357053
-0.5692243867040218
0.2074167335133318
0.216786731111429
0.9676083225989743
0.4408383233602032
-0.28833702884732415
0.5022919276313202
0.20627619495228727
0.8795691362048486
0.6710268330133433
0.8960690933510301
1.0032057247250619
-0.6884972783360523
0.5960382463049974
0.910545289126045
0.907114708135824
-0.8072911883323167
-0.695003874831141
0.9210108585329564
0.4249882062561148
0.8337972731989082
-0.5151123522927549
0.196839482650822
-0.2475111307986076
-0.4567839932759003
0.7214860289151075
-0.9269853685683289
0.6731432917889859
-0.007422376401244396
0.8940334052196814
0.0837119116454945
0.11409010258162829
-0.6798000370071383
-0.2049629757878929
-0.09593161867776548
-0.15561480844671885
0.6248797706430069
-0.7089995417052575
-0.20122183907471985
0.7345152091847592
0.13051735182585347
-0.4252681072192058
0.8285960445832953
0.988934329115958
-0.7288313151225866
0.5511705640317741
0.9196371555738513
-0.6016142384223399
-0.17744406095944762
0.710866457805783
-0.5330064765153613
0.9267923618697526
-0.17680075578125387
-0.8012097803462058
0.6674256650006481
-0.32218328437554844
-0.7748843957397855
0.9665210489050643
0.5994091599637907
-0.41139898066048447
-0.1992217161548372
0.2918769017082802
-0.46253706275227235
-0.7320383831133447
0.5861003906425024
0.3968500911925014
-0.6280310950825564
0.2866587519809176
-0.6468087707797286
-0.3914898133680367
-0.41244209905385254
-0.7846552070412472
0.6507930211223778
0.8586079795807697
0.5097189764020265
-0.18916026002020997
0.6491149378547506
-0.07250079833356571
0.06780155979472934
1.0147400288737165
1.014585579607604
0.05370171578609577
-0.773879843638082
-0.7276800571076006
-0.3667652380922132
-0.21015931563123164
-0.6079004542091242
-0.7218239445166266
-0.3091303812754186
0.3495769791439383
-0.7894652682261136
0.5687898011489523
-0.4350763645963862
0.4781808460757559
0.7004574520448323
0.028906748755876278
-0.8437313266012779
0.38195261702853633
-0.13774576190578838
-0.20223562133030162
0.4048085767533193
-0.5060980564835945
0.8815376417653009
-0.6743241252344196
-0.015095462512633261
0.7096168564281006
-0.8976856382038433
-0.6549511582472082
-0.7358478495103338
0.22753230070854757
0.7270436849690424
-0.8835818197481471
0.2884209093830196
-0.4928740614102252
0.8608219742510906
-0.9543961860847551
0.22301827248587744
0.06352819520106025
0.6795769498163831
0.5075291200208315
-0.6272756518725281
0.05275104103269255
-0.6412658172793794
-0.20339580151505848
0.13315903781473734
0.718535033244019
0.84630943777837
-0.13693680725531404
0.4675798366610489
-0.03564791080788559
-0.8631824099959334
0.008755560151142457
-0.08043852548383691
-0.7009386991045425
0.959356945806523
-0.9064246711754383
0.20545059243459518
-0.5826207324625499
0.9857567045473231
0.22210260178741925
0.7489901935362174
0.9887950463721484
0.9508227071578418
0.2956045055972386
0.06690701631625132
0.899539578453298
1.0059193392738515
0.4779940978399243
-0.80050228796537
-0.7215066003708374
0.7176423032955455
-0.1280690561303023
-0.49797487488158054
0.9524342609435962
0.039854208103038954
1.0194465246276454
0.6124501585758931
-0.9263998022606408
0.8548656352693808
0.27003126974830993
0.22050241824335207
-0.2867183326759314
0.22722434328630825
0.5282235027728635
-0.6682460354026719
0.14824010527007103
-0.9812332334149756
0.410457796114273
0.6552700709579341
-0.6000567006542992
0.5654928545567433
0.6574957500260225
-0.5459492315549633
0.4088757127717925
0.4302182626826616
-0.9086841030519751
0.7940096278500157
0.4572226056119012
0.9380730244770861
0.14283068198641527
-0.8595871780300097
0.8418424243277081
-0.16157388356200575
-0.0512075530174436
-0.5379342920570639
-0.3908833683863024
-0.15807006236973145
0.7369123094993593
-0.24460772128509914
-0.8826240274481303
-0.8428352284419006
-0.6233732869587008
-0.14280005438982887
-0.10706597191005321
0.6118280197018788
-0.8062664924369112
0.8331782970067461
-0.28417249749472373
0.6354971760186181
0.6211894042572996
-0.37559427403668955
-0.5102821840876357
-0.4841288950684789
-0.1718043876039336
0.40320582203723276
0.23129478744745574
0.5984161180499937
0.6028520464428262
0.3918494070610471
0.3712031234323225
0.1894309154964849
-0.24924461942159756
-0.6990634818019018
0.3182441655777484
0.9096914951135697
-0.492839562060932
0.4467141281226321
0.8365417377828928
0.5486430331538542
-0.15242552164460535
-0.3305232604810806
0.9828083434100858
0.45931461698066783
-0.8174674227789631
0.4554656728222625
0.17034171276959245
-0.1312830489056774
0.7787369063713592
-0.7296099431073209
0.6403676412416851
0.24475863049082008
1.0021340255772144
0.317383162525486
-0.18879650776616144
0.654187310711194
-0.19262314809864328
0.9959373658203721
0.9231954877222917
-0.3642160812453921
0.13854767464119533
0.656623267360073
0.8246109856851818
0.38910676328263316
0.9876580473208249
-0.1677207170240482
-0.004961569744265223
0.3055043945393092
-0.010471989361452279
-0.15329755185785332
0.914646634314696
-0.944203477848177
-0.3422951616378184
0.24319891085213088
-0.9112105621578133
0.779104998061887
-0.744201657076649
-0.8943957301499436
-0.18125549282275322
-0.17118566674411165
0.25341512889313644
0.7536171398837486
-0.8905295654072567
0.529214389120668
-0.49984112823746946
-0.5973104756734118
-0.8931984228130936
0.12168865149643776
-0.16153061233631394
-0.21738708273215415
-0.10979140836259152
-0.15306746371608512
-0.9391318324742672
-0.28714323573032646
0.3667833977853038
-0.2350344184348625
-0.9026972850453713
0.42975083698015
-0.15835458058102236
-0.5478907517111599
0.68273558016475
-0.15123329275796582
-0.9786065537014343
0.012103056526180522
0.6006926023098175
-0.06968604317693688
0.286806361590215
-0.8592793887987871
0.931307990220413
-0.18076109712987276
0.4521355848337241
-0.744446667624582
0.6270422456841315
-0.5443504673885069
0.27821979537516933
0.11424957866895982
0.021837020337791068
-0.029583289848267382
0.56867723940908
0.3385386201147216
-0.6952111033883558
-0.5495262364011543
-0.37794520655770997
-0.5247184338994179
-0.681836702196187
-0.7312981195730732
0.9582452860419918
-0.027388166272737286
0.8091530914518898
-0.37420635447435474
-0.8638344297599274
0.749684814015357
0.16006599774520772
0.8391290605618856
-0.546398906567134
0.8553356193594397
-0.6530924416802852
-0.8852270558107869
0.5331988276732923
-0.3700625887790481
-0.02307768084543188
0.8858292217112035
-0.7928914635111738
-0.8694202059310706
-0.9281258869439035
-0.9067715185704959
-0.0020405110815930835
-0.1882003412449301
0.3474409401991243
-0.8866910374104883
0.228566561692086
-0.8285437857299371
-0.9172422180573355
0.5149951466220459
0.7984929196214987
-0.9015845248740967
0.3078970663118485
0.1597573269781466
-0.6469554237811281
-0.4035688806106474
0.9045534101944569
0.3418331715484836
0.37370179597125935
0.04509775393373211
0.39577022254772987
-0.9166768111007224
0.09412895103585257
-0.6868797218232062
0.37014611981183787
-0.16860606476137016
-0.02171649341665878
-0.07365255529653512
-0.30775637164814823
0.7167699600085213
0.47039335247162806
0.09545249296233115
-0.33778187025537015
0.905129026308509
-0.8837789870447117
-0.6587276334697028
0.37413633110945793
-0.05535573412898092
-0.21919651988620845
-0.15776415820333883
-0.5438356287530273
-0.6386411595804673
-0.4158550198492655
0.4070441060213092
0.33362698368925264
0.7031413529581063
-0.696434230148242
0.11311126813307665
-0.6593522135171412
0.3890267529037133
0.0026978180042056947
-0.22729143560789059
-0.5621974655929686
-0.8414050004122242
-0.17071213427284967
-0.3570683787025901
0.33099980662566875
0.509089133429519
0.8900597118665585
0.8701139054179031
-0.9778211082998276
0.6223313876183971
0.3354008412051448
0.9548451528923588
0.9702038296234599
0.34561641803432236
0.33953205410930887
0.6075930774272393
0.9973859650418511
0.09351032199182886
-0.10458469445280487
1.0453132123958586
0.21058911019792684
0.5586413662151174
-0.422769185828283
-0.14216804456915771
0.5762225111041297
1.0182660089857822
-0.36878039639590704
0.09437349104056585
0.3339511740693173
0.7157592654885344
-0.8816069021992814
0.2168588340867184
0.2115642248263147
0.502398895356755
-0.3176257330645817
0.8520191965557478
0.2366247882195598
0.039101055075637464
-0.6083809074738391
-0.8462223272113178
-0.032994811826801224
0.9443770068252764
0.8450410646647831
0.9591005231791183
-0.8075963940843573
-0.5948363181242777
-0.7870722295041318
-0.7344179807409627
-0.8935513562698405
0.5545148195624995
-0.018093598517469077
-0.16916869943036697
0.08574767822566025
0.6366176754052855
0.2185319677833794
-0.02187982418774082
-0.5343235361981186
0.3545863832151968
-0.5265156629872052
0.2805626023337871
0.7786180172987661
-0.9479007461181835
-0.44090917751806546
-0.24369447245276327
0.5026417323763692
0.6908972736834631
-0.8169512816916431
0.1710007090724434
1.1097199227159347
-0.0872321719885948
0.24378918583933742
0.37384314751437625
-0.9873978430868371
-0.7696474015015955
-0.38960922318492697
-0.6811173491869853
0.8000737336672327
0.6738478166776459
0.2837687995879701
-0.7726351251193356
0.00222738921275143
-0.5046513970942267
0.9154001009171033
-0.6393364230397921
-0.3644287130522457
0.8004902553806775
-0.35873262907182196
0.22390685222795417
-0.3964780826673618
0.7294848990176676
-0.09564630295570652
-0.65764536808132
0.7552585784349083
-0.565911862571889
0.8308571918120718
0.6165091833064253
0.23087935418279013
-0.4035357152579677
0.9581398656805774
-0.15075189533281885
0.9016336760268145
-0.7586624275568997
0.39423773192110556
-0.8447070216688691
-0.018979545088492603
-0.34340055538503367
-0.6266648988452354
0.5440586454530695
-0.5329463031161018
-0.8581586133377549
-0.7734078421612006
-0.7373076736031474
-0.7526064616226472
0.4438248781832974
-0.5694034884440223
-0.2737438943796324
-0.8376881716196956
-0.5305966412331512
0.17665420387051572
-0.19524557641986526
-0.4446030910638659
-0.6517249488740559
-0.5900354960203182
0.8171731819012692
-0.17278106347269062
0.045843646861368256
0.4303058919515913
-0.4356996086634831
-0.5490995321683465
-0.9386086332130029
-0.28265079609037985
0.28642261074220576
-0.47886423178337373
0.01496503154811899
0.15621385904030283
0.3983711799860104
-0.23091192224924534
-0.43071787210661633
0.16992404314191265
1.0245464261303097
0.8545576819125024
0.5317319927758659
-0.24466707580019478
0.38744122515463164
-0.38127773035347184
-0.08296094334999668
-0.39635093854719416
-0.8593295524364554
-0.46492755064498176
-0.8657140208365117
0.3063239151386548
0.687928732039778
-0.9063062946216347
0.22880465158914057
0.5989140238277443
0.7368468210612421
0.04093151868005889
-0.8571810179266071
-0.700582058974856
-0.6177834425277559
-0.40146397913448095
-0.03413123075623238
-0.015044510164951258
-0.3129569438305603
0.8864961939775358
-0.8172317132282948
-0.46335259869669293
0.8264189737693424
0.5010985064552357
0.30586027385420467
0.18429915068926617
-0.5803324888390123
0.9467668504361039
0.5223018156424468
0.4161904563941649
-0.9506962537966533
0.31017023634006
-0.4294520031289706
0.98982863213614
0.24108860277711838
0.4104948530462946
0.7245274861458686
0.6868086067517132
-0.4573634249133956
0.04755265214162197
-1.081336476143796
-0.09063903728461045
0.008115492680112538
0.31046204743066314
0.644360544653685
-0.22775882304306008
-0.23203031255824005
0.35936783094221114
-0.3697166173029379
0.20094290336862827
-0.4138058497984742
-0.15801782263935793
0.4135620233365354
0.9444562595393811
-0.9478269208838037
0.07611989976891667
0.6956228473624417
-0.7635640220424383
-0.03904547302734276
-0.369727560172343
-0.4515744913244129
-0.817744412525268
0.22343981459305295
0.9032494049362306
0.6777626963739612
0.3022091818136673
-0.32182750270907917
-0.02816398536019106
-0.41718826286767013
-0.41872496482975674
-0.8894718288536688
-0.0431639129384005
-1.0558525864353663
-0.2970551949917914
-0.46143915105581146
-0.420473760673119
0.651619478796882
-0.1983280298994113
0.15229977605408318
-0.4899742936791773
-0.49879640888736354
0.971145858240803
0.07973413072553129
0.660484511297466
-0.4582554953215678
0.15428525712579358
0.299308628731419
0.1477160626945085
-0.8303295594650121
-0.3527350551006678
-0.04162503972202352
-0.08618946011081469
-0.2887961203647412
0.7514541928091772
-0.8142608665826728
-0.2852750747419165
-0.943430901735854
-1.011106902107501
-0.3345565415843397
-0.7250740077448782
0.14274517027081057
0.41159835267533673
-0.8545095035010207
-0.2997907732156365
-0.020611025475456443
-1.1417977015212837
0.5735971457667876
0.14159321759982857
-0.010254489033439307
-0.1892405099174977
0.38249210348622176
1.062290130176092
-0.9811283753775027
0.8224960897281876
0.24587455175434836
0.0784062149989621
-0.7972975658749224
0.5617844849538242
-0.1936596027377251
0.5081257078907965
-0.4904620015755486
-0.464671938152772
0.15383478474141496
0.8042496771896553
0.4566921135545459
0.4488084018503174
-0.2685832210760108
0.3732008739262197
-0.8105026785100308
0.5322511208891593
0.8876537759406491
-0.2181627177497712
-0.8150313980272121
0.25434121600267295
-0.8313986438396187
-0.4535138262033387
-0.44587689052357005
0.08437669747022088
-0.9922145162813896
0.644220355725545
0.36167604090581307
0.903717496414282
-0.3938861478351734
0.554474800799016
-0.8732668305224657
-0.9422478330297979
0.2386085892437525
-0.9391521853936436
-0.2600453738164602
0.36407781154131413
-0.2988861631382727
0.5032455291440197
0.14045781498453824
0.35256632659691756
-0.8087881598303654
-0.3498838312041865
-0.27019823248403746
0.43562839122375724
-0.559969517917251
-0.24094334728915254
-0.8130202655496811
-0.5023094969747959
-0.046284753106391276
0.0450463299414077
-0.2038308786873493
0.44909116655029685
0.5923813159354578
-0.03883535373249609
0.5597039756746713
-0.6738444229986926
0.2993609556948668
0.4972676022990359
-0.5955675963863972
0.8685279614275246
-0.5903120999987399
0.8650732131130836
0.9229107275241636
0.5428573184202495
0.9127586135320368
0.6481021031009742
0.23919404474544775
-0.029198594744988277
-0.6094570135672996
0.5387030256891692
-0.5642531172120725
-0.9486464373720022
-1.0658813716443654
-0.10278784984890975
-0.06779786556065508
0.5319148558369142
-0.49798209567617185
0.3661603283299794
-0.18947872439052935
0.3992316396988845
-0.016086270819483103
0.6673071781437818
-0.8473086487518108
-0.47238924832410883
-0.4254169535640375
0.9497071611663778
0.2831452788318333
0.2892945868087675
0.672059644908346
-0.4259790659730183
0.902806306316528
0.4543321429031429
-0.6364997193825602
0.1495008376189747
-0.36533606638414556
-0.3459145504230087
0.6923952054459511
0.649112066334871
0.17367369254464612
0.8784415507833575
0.6589753492315223
0.5458413066659961
0.13834687891958744
0.3030877387294858
0.8013592143986205
0.10849341011235496
-0.9461706442078455
-0.7826679738890989
-0.029782300640959727
0.28747142270510384
-0.38171554171871813
-0.6819088189240531
0.374320072909489
0.16392845831519046
-0.20463195959488892
-0.29416387334327315
-0.8456429686940421
0.3366323533919939
0.303792912539156
0.0774601548004933
-0.5950303935175837
0.586189258087523
-0.8182742862296116
-0.3783451949283563
0.5108195692232546
-0.2380747830231155
1.0521064800815967
-0.23525741814343773
0.03410365396630119
-0.7329391256596772
0.5188255596576241
-0.4076933239318179
0.624456809682806
-0.7886203102841783
-0.7542599327466758
0.557195926383373
0.04573354204236181
0.8243089263408394
-0.4973298804216146
-0.5009768805452046
-0.7497928062153104
-0.2007374064027683
1.0902009340617065
-0.6550383211900146
-0.043379046753128356
1.0388619135197854
0.7828307483993457
0.6560485588764338
0.6784615904320856
0.49051721864663134
0.011126907343588196
0.031132350072877717
-0.5372169163893372
-0.4110075949310294
0.9349691478125276
0.27414705668539463
0.5399141940954127
0.3804378110273987
-0.18345931439845792
0.7388626005843236
-0.023774899798825813
-0.11321124574287274
0.107255430393625
-0.4163332558095498
0.720679573142798
-1.0377506804485201
0.08106630381416363
-1.0098473626541538
0.6063492592129348
0.5041891606206133
-0.534773362034063
0.517373942813859
-0.8516073653913917
0.8194959595317942
0.5380929805965025
0.4165973701453082
0.9026805684504673
-0.48361976624554404
0.8734514388107966
-0.6602724457786221
0.2895261455519799
-0.13885699503879792
-0.3615302022641145
0.4042544436801683
-0.3911711647088951
-0.1338882824249694
-0.8570061853325345
0.2750760104899461
-0.024952032450587244
0.8340354666052593
-0.8515310622839611
-0.8210492097423178
-0.6860548844383172
0.5420519293114608
0.7577996070551601
-0.6502902334763088
-0.859846986144363
0.9375260214027957
-0.5094678585434765
-0.6270584602555044
-0.8998206902497884
0.8821304531789962
-0.21155434101796605
-0.7957778120757636
-0.719500728568763
-0.7590381057583961
-0.6960658479286698
0.5457269862242686
-0.09479097874143003
-0.6835703011960154
-0.5966331730000215
-0.010829361525800359
-0.7350782208072697
-0.697031536471122
0.3354224024113115
-0.6310724199358662
0.5301655277052648
0.9938480912689487
0.43399711788075285
-0.5866469502968779
0.6044059252915928
0.3391799954864228
0.8017981397105762
-0.8312159792258469
-0.26715857592932263
0.12049882593908377
-0.821702084274095
-0.8713445361122548
3.2706054778276007E-4
-0.11224468837564287
0.580201186384454
-0.5719388862588505
0.6494426349477608
0.8719175325826044
-0.28906801972768437
-0.8069622270572234
0.2644201031079526
-0.08341478725527068
1.0275975121786818
0.900906642327264
-0.8045598619982203
-0.01392033354748009
-0.5844080720044162
0.6365391441256564
-0.8566179744808712
-0.7114895922103397
0.960275359188167
-0.15905593251964384
0.2663790144543698
-0.49150491919791184
-0.7034707178447426
-0.5525550452522393
0.663937060627317
-0.2837750561634951
0.6304048187527027
0.08034368357321545
-0.0071464282224258865
0.7548173377721253
